{"learner":{"attributes":{"scikit_learn":"{\"_estimator_type\": \"regressor\"}"},"feature_names":[],"feature_types":[],"gradient_booster":{"model":{"gbtree_model_param":{"num_parallel_tree":"1","num_trees":"300"},"iteration_indptr":[0,1,2,3,4,5,6,7,8,9,10,11,12,13,14,15,16,17,18,19,20,21,22,23,24,25,26,27,28,29,30,31,32,33,34,35,36,37,38,39,40,41,42,43,44,45,46,47,48,49,50,51,52,53,54,55,56,57,58,59,60,61,62,63,64,65,66,67,68,69,70,71,72,73,74,75,76,77,78,79,80,81,82,83,84,85,86,87,88,89,90,91,92,93,94,95,96,97,98,99,100,101,102,103,104,105,106,107,108,109,110,111,112,113,114,115,116,117,118,119,120,121,122,123,124,125,126,127,128,129,130,131,132,133,134,135,136,137,138,139,140,141,142,143,144,145,146,147,148,149,150,151,152,153,154,155,156,157,158,159,160,161,162,163,164,165,166,167,168,169,170,171,172,173,174,175,176,177,178,179,180,181,182,183,184,185,186,187,188,189,190,191,192,193,194,195,196,197,198,199,200,201,202,203,204,205,206,207,208,209,210,211,212,213,214,215,216,217,218,219,220,221,222,223,224,225,226,227,228,229,230,231,232,233,234,235,236,237,238,239,240,241,242,243,244,245,246,247,248,249,250,251,252,253,254,255,256,257,258,259,260,261,262,263,264,265,266,267,268,269,270,271,272,273,274,275,276,277,278,279,280,281,282,283,284,285,286,287,288,289,290,291,292,293,294,295,296,297,298,299,300],"tree_info":[0,0,0,0,0,0,0,0,0,0,0,0,0,0,0,0,0,0,0,0,0,0,0,0,0,0,0,0,0,0,0,0,0,0,0,0,0,0,0,0,0,0,0,0,0,0,0,0,0,0,0,0,0,0,0,0,0,0,0,0,0,0,0,0,0,0,0,0,0,0,0,0,0,0,0,0,0,0,0,0,0,0,0,0,0,0,0,0,0,0,0,0,0,0,0,0,0,0,0,0,0,0,0,0,0,0,0,0,0,0,0,0,0,0,0,0,0,0,0,0,0,0,0,0,0,0,0,0,0,0,0,0,0,0,0,0,0,0,0,0,0,0,0,0,0,0,0,0,0,0,0,0,0,0,0,0,0,0,0,0,0,0,0,0,0,0,0,0,0,0,0,0,0,0,0,0,0,0,0,0,0,0,0,0,0,0,0,0,0,0,0,0,0,0,0,0,0,0,0,0,0,0,0,0,0,0,0,0,0,0,0,0,0,0,0,0,0,0,0,0,0,0,0,0,0,0,0,0,0,0,0,0,0,0,0,0,0,0,0,0,0,0,0,0,0,0,0,0,0,0,0,0,0,0,0,0,0,0,0,0,0,0,0,0,0,0,0,0,0,0,0,0,0,0,0,0,0,0,0,0,0,0,0,0,0,0,0,0,0,0,0,0,0,0,0,0,0,0,0,0],"trees":[{"base_weights":[4.0933695E-3,-2.110798E0,1.651662E1,-3.9587398E0,1.3609594E1,6.159003E0,2.3600492E1,-6.398678E0,5.7520275E0,5.0378237E0,2.0086918E1,-4.5066414E0,1.692786E1,1.7021446E1,2.7729038E1,-8.083287E0,6.3153095E0,-2.9592638E0,8.468281E0,-5.606723E0,1.3298486E1,1.39262085E1,2.602208E1,-1.620993E1,7.2567363E0,8.144893E0,2.4181784E1,8.887925E0,2.3643835E1,2.8010948E1,2.543127E0,-3.8961384E0,-1.2834747E1,-8.2380784E-1,1.2850792E1,-9.466698E0,7.0360703E0,-2.2134907E0,1.2932856E1,-1.711766E1,2.2625394E0,6.3858886E0,2.1250675E1,7.181784E0,1.9832138E1,2.6447695E1,-1.9884995E-1,2.262938E-1,-1.7304407E1,8.225707E0,-2.3861992E-1,2.0049288E1,6.6694784E0,2.4925167E1,2.4138007E-1,1.2447557E1,3.4932058E0,2.4232695E1,-4.4913745E-1,2.4418592E1,8.96293E-1,-1.4913745E-1,2.0115004E-1,-1.5725327E-1,2.762916E-1,-4.2420924E-1,3.2963105E-2,-2.6257432E-1,2.6935524E-1,1.8596347E-1,5.917934E-1,-4.5729217E-1,8.293914E-2,1.6925336E-3,4.5850405E-1,-3.3995757E-1,1.763011E-1,5.3322405E-1,2.8982958E-1,-7.7141815E-1,-1.6978563E-1,-1.8293454E-1,3.9166757E-1,-5.1907957E-2,3.189996E-1,4.2354617E-1,8.1001043E-1,-6.2150513E-3,4.0633613E-1,3.7091163E-1,7.546324E-1,8.029123E-1,1.1500549E-3,-5.4258525E-1,2.0115004E-1,-2.3861992E-1,2.7931127E-1,7.2138005E-1,2.0115004E-1,2.9470822E-1,-1.3361172E-2,2.262938E-1,7.6608497E-1,-1.9884995E-1,4.0395862E-1,3.6138007E-1,5.52349E-2,7.465328E-1,2.4138007E-1,2.262938E-1,7.467611E-1],"categories":[],"categories_nodes":[],"categories_segments":[],"categories_sizes":[],"default_left":[1,1,1,1,0,1,1,1,0,0,1,1,1,1,1,0,0,1,0,0,1,1,1,0,1,0,1,1,1,0,0,1,1,1,0,1,0,1,0,1,1,0,1,1,0,1,0,0,1,0,0,0,0,0,0,0,0,1,0,0,0,0,0,0,0,0,0,0,0,0,0,0,0,0,0,0,0,0,0,0,0,0,0,0,0,0,0,0,0,0,0,0,0,0,0,0,0,0,0,0,0,0,0,0,0,0,0,0,0,0,0],"id":0,"left_children":[1,3,5,7,9,11,13,15,17,19,21,23,25,27,29,31,33,35,37,39,41,43,45,47,49,51,53,55,57,59,61,63,65,67,69,71,73,75,77,79,81,83,85,87,89,91,-1,-1,93,95,-1,97,99,101,-1,103,105,107,-1,109,-1,-1,-1,-1,-1,-1,-1,-1,-1,-1,-1,-1,-1,-1,-1,-1,-1,-1,-1,-1,-1,-1,-1,-1,-1,-1,-1,-1,-1,-1,-1,-1,-1,-1,-1,-1,-1,-1,-1,-1,-1,-1,-1,-1,-1,-1,-1,-1,-1,-1,-1],"loss_changes":[2.223845E5,1.6404323E5,5.290264E4,1.19737234E5,3.2878953E4,3.3959043E4,1.1180453E4,8.653734E4,2.4042066E4,2.2672828E4,1.1996516E4,2.0630492E4,9.168559E3,8.838898E3,1.7890156E3,7.089581E4,2.2079623E4,1.5807251E4,3.6940348E4,1.0274562E4,7.8349863E3,6.5493633E3,2.5516094E3,2.0803164E3,1.1708342E3,1.0606279E3,7.590586E2,1.435166E3,2.4547734E3,1.0061406E3,1.5842778E2,3.3503246E4,3.0394562E4,1.7720871E4,1.1174738E4,1.04281E4,5.5252803E3,1.6959893E4,8.476945E3,4.3853506E3,6.2155044E3,2.74175E3,2.3664316E3,3.7639326E3,3.2266562E3,1.4095703E3,0E0,0E0,1.4726934E3,1.3200781E3,0E0,2.1210449E2,1.3957268E3,6.1452734E2,0E0,9.823008E2,4.29968E2,7.5977734E2,0E0,5.632539E2,0E0,0E0,0E0,0E0,0E0,0E0,0E0,0E0,0E0,0E0,0E0,0E0,0E0,0E0,0E0,0E0,0E0,0E0,0E0,0E0,0E0,0E0,0E0,0E0,0E0,0E0,0E0,0E0,0E0,0E0,0E0,0E0,0E0,0E0,0E0,0E0,0E0,0E0,0E0,0E0,0E0,0E0,0E0,0E0,0E0,0E0,0E0,0E0,0E0,0E0,0E0],"parents":[2147483647,0,0,1,1,2,2,3,3,4,4,5,5,6,6,7,7,8,8,9,9,10,10,11,11,12,12,13,13,14,14,15,15,16,16,17,17,18,18,19,19,20,20,21,21,22,22,23,23,24,24,25,25,26,26,27,27,28,28,29,29,30,30,31,31,32,32,33,33,34,34,35,35,36,36,37,37,38,38,39,39,40,40,41,41,42,42,43,43,44,44,45,45,48,48,49,49,51,51,52,52,53,53,55,55,56,56,57,57,59,59],"right_children":[2,4,6,8,10,12,14,16,18,20,22,24,26,28,30,32,34,36,38,40,42,44,46,48,50,52,54,56,58,60,62,64,66,68,70,72,74,76,78,80,82,84,86,88,90,92,-1,-1,94,96,-1,98,100,102,-1,104,106,108,-1,110,-1,-1,-1,-1,-1,-1,-1,-1,-1,-1,-1,-1,-1,-1,-1,-1,-1,-1,-1,-1,-1,-1,-1,-1,-1,-1,-1,-1,-1,-1,-1,-1,-1,-1,-1,-1,-1,-1,-1,-1,-1,-1,-1,-1,-1,-1,-1,-1,-1,-1,-1],"split_conditions":[1.550923E-1,1.6041455E-1,1.5496804E-1,1.2018887E-1,1.674376E-1,1.5517168E-1,1.6764985E-1,1.6979863E-1,1.7273705E-1,1.6635825E-1,1.411907E-1,1.7731157E-1,1.5542012E-1,1.21625386E-1,1.8887815E-1,4.099047E-2,1.5791352E-1,1.6767128E-1,1.510942E-1,1.6362719E-1,1.7088187E-1,1.2663417E-1,1.9128117E-1,3.270735E-1,1.7422724E-1,1.9541657E-1,1.786304E-1,1.0808883E-1,2.853649E-1,1.5517168E-1,3.3386233E-1,1.755419E-1,2.211621E-1,1.6087414E-1,1.9189207E-1,1.9853014E-1,1.442733E-1,2.7940765E-1,3.8975205E-2,1.9748472E-1,1.9206855E-1,1.7823017E-1,1.305005E-1,1.4108011E-1,1.3869885E-1,1.751799E-1,-1.9884995E-1,2.262938E-1,1.8261689E-1,1.8913953E-1,-2.3861992E-1,1.1576649E-1,1.0291758E-1,2.0483004E-1,2.4138007E-1,1.9251569E-1,1.9229305E-1,1.6262262E-1,-4.4913745E-1,1.9678779E-1,8.96293E-1,-1.4913745E-1,2.0115004E-1,-1.5725327E-1,2.762916E-1,-4.2420924E-1,3.2963105E-2,-2.6257432E-1,2.6935524E-1,1.8596347E-1,5.917934E-1,-4.5729217E-1,8.293914E-2,1.6925336E-3,4.5850405E-1,-3.3995757E-1,1.763011E-1,5.3322405E-1,2.8982958E-1,-7.7141815E-1,-1.6978563E-1,-1.8293454E-1,3.9166757E-1,-5.1907957E-2,3.189996E-1,4.2354617E-1,8.1001043E-1,-6.2150513E-3,4.0633613E-1,3.7091163E-1,7.546324E-1,8.029123E-1,1.1500549E-3,-5.4258525E-1,2.0115004E-1,-2.3861992E-1,2.7931127E-1,7.2138005E-1,2.0115004E-1,2.9470822E-1,-1.3361172E-2,2.262938E-1,7.6608497E-1,-1.9884995E-1,4.0395862E-1,3.6138007E-1,5.52349E-2,7.465328E-1,2.4138007E-1,2.262938E-1,7.467611E-1],"split_indices":[672,228,686,544,707,596,610,191,426,578,124,610,610,596,168,233,281,139,478,124,124,68,91,506,463,467,423,596,42,596,105,686,578,177,30,349,718,368,232,68,518,68,68,578,578,50,0,0,50,690,0,610,401,17,0,178,170,220,0,110,0,0,0,0,0,0,0,0,0,0,0,0,0,0,0,0,0,0,0,0,0,0,0,0,0,0,0,0,0,0,0,0,0,0,0,0,0,0,0,0,0,0,0,0,0,0,0,0,0,0,0],"split_type":[0,0,0,0,0,0,0,0,0,0,0,0,0,0,0,0,0,0,0,0,0,0,0,0,0,0,0,0,0,0,0,0,0,0,0,0,0,0,0,0,0,0,0,0,0,0,0,0,0,0,0,0,0,0,0,0,0,0,0,0,0,0,0,0,0,0,0,0,0,0,0,0,0,0,0,0,0,0,0,0,0,0,0,0,0,0,0,0,0,0,0,0,0,0,0,0,0,0,0,0,0,0,0,0,0,0,0,0,0,0,0],"sum_hessian":[6.366E3,5.644E3,7.22E2,5.051E3,5.93E2,2.94E2,4.28E2,4.037E3,1.014E3,2.56E2,3.37E2,1.48E2,1.46E2,1.67E2,2.61E2,3.565E3,4.72E2,2.41E2,7.73E2,1.12E2,1.44E2,1.67E2,1.7E2,7.4E1,7.4E1,6.7E1,7.9E1,7.6E1,9.1E1,2.58E2,3E0,1.896E3,1.669E3,2.26E2,2.46E2,1.46E2,9.5E1,2.28E2,5.45E2,4.5E1,6.7E1,7.8E1,6.6E1,7.9E1,8.8E1,1.68E2,2E0,3E0,7.1E1,7E1,4E0,6E0,6.1E1,7.5E1,4E0,4.5E1,3.1E1,9E1,1E0,9.3E1,1.65E2,1E0,2E0,1.72E3,1.76E2,1.526E3,1.43E2,1.25E2,1.01E2,1.26E2,1.2E2,9.9E1,4.7E1,5.2E1,4.3E1,1.07E2,1.21E2,2.18E2,3.27E2,2.5E1,2E1,3.8E1,2.9E1,2.7E1,5.1E1,3.1E1,3.5E1,3.7E1,4.2E1,3.8E1,5E1,1.66E2,2E0,6.9E1,2E0,4E0,6.6E1,4E0,2E0,4.2E1,1.9E1,3E0,7.2E1,2E0,4.3E1,4E0,2.7E1,8.6E1,4E0,3E0,9E1],"tree_param":{"num_deleted":"0","num_feature":"798","num_nodes":"111","size_leaf_vector":"1"}},{"base_weights":[3.9468423E-2,-2.0216606E0,1.6208078E1,-4.6175017E0,8.796175E0,6.7188206E0,2.3167439E1,-1.5254508E-1,-9.036043E0,4.784066E0,2.0529917E1,-3.4036078E0,1.523469E1,1.6922731E1,2.7077457E1,-1.4983962E1,1.0899127E0,-1.04485E1,4.6485014E0,1.8973469E0,1.3215249E1,1.2963476E1,2.5542086E1,-1.46779E1,6.580355E0,6.8304167E0,2.3360857E1,9.130818E0,2.3386356E1,2.728813E1,2.0949176E-1,-2.6127718E1,-4.63769E0,-6.8186146E-1,9.633402E0,-2.0752836E1,-7.9834085E0,2.2202589E-1,1.5227076E1,-1.5410458E0,1.4134158E1,5.761316E0,1.920584E1,4.2069416E0,1.9499834E1,2.5849525E1,1.6357422E-2,2.327354E-1,-1.5850792E1,7.972773E0,-8.283877E0,-5.830418E0,7.879076E0,2.3594896E-1,2.4028988E1,-5.114353E0,1.0206033E1,2.4000849E1,-4.603355E-1,1.862149E-1,2.7431376E1,-9.598538E-1,-3.9121994E-1,-3.684405E-1,8.352309E-2,-9.017372E-2,2.9889053E-1,-4.0135127E-3,4.2837945E-1,-7.101646E-1,-2.3526601E-1,-5.8442444E-1,-1.9525155E-1,-3.0000895E-1,2.795904E-1,1.9754176E-1,6.179461E-1,-1.5291838E-1,2.4918605E-1,2.2106406E-1,6.267152E-1,-9.351749E-2,3.60008E-1,3.9961722E-1,7.085573E-1,-1.9784826E-1,3.4884086E-1,6.1801225E-1,-7.3021315E-2,7.848991E-1,2.3928834E-3,-1.4963195E-1,1.5036803E-1,2.120018E-1,-5.011214E-1,6.360042E-1,1.9887382E-1,1.5900135E-1,-3.4293616E-1,1.4667286E-1,-2.529556E-1,7.1175593E-1,2.0105754E-1,1.858284E-1,7.320627E-1,-2.4413031E-1,1.5003398E-1,-2.2565877E-1,3.32963E-1,7.4101096E-1,2.234632E-1,8.273077E-1,1.862149E-1],"categories":[],"categories_nodes":[],"categories_segments":[],"categories_sizes":[],"default_left":[1,1,1,0,1,1,1,0,1,1,0,0,0,0,1,1,1,0,1,1,0,0,1,0,0,0,0,0,1,0,0,1,0,1,0,1,0,0,0,1,0,0,0,0,1,1,0,0,0,0,0,0,0,0,0,1,0,1,0,0,1,0,0,0,0,0,0,0,0,0,0,0,0,0,0,0,0,0,0,0,0,0,0,0,0,0,0,0,0,0,0,0,0,0,0,0,0,0,0,0,0,0,0,0,0,0,0,0,0,0,0,0,0],"id":1,"left_children":[1,3,5,7,9,11,13,15,17,19,21,23,25,27,29,31,33,35,37,39,41,43,45,47,49,51,53,55,57,59,-1,61,63,65,67,69,71,73,75,77,79,81,83,85,87,89,91,-1,93,95,97,99,101,-1,103,105,107,109,-1,-1,111,-1,-1,-1,-1,-1,-1,-1,-1,-1,-1,-1,-1,-1,-1,-1,-1,-1,-1,-1,-1,-1,-1,-1,-1,-1,-1,-1,-1,-1,-1,-1,-1,-1,-1,-1,-1,-1,-1,-1,-1,-1,-1,-1,-1,-1,-1,-1,-1,-1,-1,-1,-1],"loss_changes":[2.1428297E5,1.6018873E5,4.785483E4,9.0750164E4,5.1874844E4,2.6688045E4,9.772453E3,4.219667E4,4.4736844E4,2.0029816E4,1.0325609E4,1.6080406E4,1.1313914E4,8.046164E3,8.931719E2,2.0286273E4,3.1991334E4,5.3075094E4,1.0157818E4,2.5897883E4,9.266578E3,6.4428516E3,1.3179844E3,1.8860527E3,1.6390352E3,1.1611982E3,6.9104297E2,1.2162598E3,2.4864688E3,5.9375E2,0E0,6.109668E3,5.310052E3,4.334609E4,1.6473941E4,1.5041219E4,2.8584695E4,1.4415072E4,2.8351934E3,1.6886533E4,6.016787E3,5.2997373E3,2.6979219E3,4.0847722E3,1.6192363E3,1.3401875E3,9.99998E1,0E0,1.3695303E3,1.103564E3,3.5985727E2,2.3642696E2,1.29596E3,0E0,3.8783203E2,2.2419197E2,1.2071572E3,8.3491797E2,0E0,0E0,6.041875E2,0E0,0E0,0E0,0E0,0E0,0E0,0E0,0E0,0E0,0E0,0E0,0E0,0E0,0E0,0E0,0E0,0E0,0E0,0E0,0E0,0E0,0E0,0E0,0E0,0E0,0E0,0E0,0E0,0E0,0E0,0E0,0E0,0E0,0E0,0E0,0E0,0E0,0E0,0E0,0E0,0E0,0E0,0E0,0E0,0E0,0E0,0E0,0E0,0E0,0E0,0E0,0E0],"parents":[2147483647,0,0,1,1,2,2,3,3,4,4,5,5,6,6,7,7,8,8,9,9,10,10,11,11,12,12,13,13,14,14,15,15,16,16,17,17,18,18,19,19,20,20,21,21,22,22,23,23,24,24,25,25,26,26,27,27,28,28,29,29,31,31,32,32,33,33,34,34,35,35,36,36,37,37,38,38,39,39,40,40,41,41,42,42,43,43,44,44,45,45,46,46,48,48,49,49,50,50,51,51,52,52,54,54,55,55,56,56,57,57,60,60],"right_children":[2,4,6,8,10,12,14,16,18,20,22,24,26,28,30,32,34,36,38,40,42,44,46,48,50,52,54,56,58,60,-1,62,64,66,68,70,72,74,76,78,80,82,84,86,88,90,92,-1,94,96,98,100,102,-1,104,106,108,110,-1,-1,112,-1,-1,-1,-1,-1,-1,-1,-1,-1,-1,-1,-1,-1,-1,-1,-1,-1,-1,-1,-1,-1,-1,-1,-1,-1,-1,-1,-1,-1,-1,-1,-1,-1,-1,-1,-1,-1,-1,-1,-1,-1,-1,-1,-1,-1,-1,-1,-1,-1,-1,-1,-1],"split_conditions":[1.550923E-1,1.2362689E-1,1.5496804E-1,4.0586106E-2,1.6635825E-1,1.5542012E-1,1.6764985E-1,1.09810196E-1,2.1280585E-1,1.6549689E-1,1.3670495E-1,2.4273013E-1,2.4371634E-1,2.2362185E-1,1.5387772E-1,1.6995047E-1,1.2018887E-1,1.2018887E-1,2.2591557E-1,1.6362719E-1,1.4049813E-1,1.3852781E-1,1.9203798E-1,1.8236643E-1,4.896214E-2,2.028767E-1,2.0483004E-1,1.8659262E-1,2.8261688E-1,1.5279141E-1,2.0949176E-1,1.714891E-1,1.0866128E-1,1.5357666E-1,1.12183176E-1,2.20033E-1,2.0168519E-1,1.507348E-1,1.5216975E-1,1.5878548E-1,1.5682988E-1,1.17259175E-1,1.4507072E-1,1.3548677E-1,1.6908942E-1,1.6097263E-1,1.9032744E-1,2.327354E-1,1.6206548E-1,1.9541657E-1,2.3199803E-1,1.7052266E-1,2.0515697E-1,2.3594896E-1,1.6396253E-1,1.8233997E-1,1.9425656E-1,1.640703E-1,-4.603355E-1,1.862149E-1,1.6105393E-1,-9.598538E-1,-3.9121994E-1,-3.684405E-1,8.352309E-2,-9.017372E-2,2.9889053E-1,-4.0135127E-3,4.2837945E-1,-7.101646E-1,-2.3526601E-1,-5.8442444E-1,-1.9525155E-1,-3.0000895E-1,2.795904E-1,1.9754176E-1,6.179461E-1,-1.5291838E-1,2.4918605E-1,2.2106406E-1,6.267152E-1,-9.351749E-2,3.60008E-1,3.9961722E-1,7.085573E-1,-1.9784826E-1,3.4884086E-1,6.1801225E-1,-7.3021315E-2,7.848991E-1,2.3928834E-3,-1.4963195E-1,1.5036803E-1,2.120018E-1,-5.011214E-1,6.360042E-1,1.9887382E-1,1.5900135E-1,-3.4293616E-1,1.4667286E-1,-2.529556E-1,7.1175593E-1,2.0105754E-1,1.858284E-1,7.320627E-1,-2.4413031E-1,1.5003398E-1,-2.2565877E-1,3.32963E-1,7.4101096E-1,2.234632E-1,8.273077E-1,1.862149E-1],"split_indices":[672,669,686,532,578,610,610,478,718,478,68,530,530,530,80,391,544,544,759,124,455,707,285,777,232,329,17,361,94,299,0,455,455,30,426,349,578,426,128,172,707,391,172,124,382,239,9,0,16,467,52,29,475,0,14,120,597,777,0,0,406,0,0,0,0,0,0,0,0,0,0,0,0,0,0,0,0,0,0,0,0,0,0,0,0,0,0,0,0,0,0,0,0,0,0,0,0,0,0,0,0,0,0,0,0,0,0,0,0,0,0,0,0],"split_type":[0,0,0,0,0,0,0,0,0,0,0,0,0,0,0,0,0,0,0,0,0,0,0,0,0,0,0,0,0,0,0,0,0,0,0,0,0,0,0,0,0,0,0,0,0,0,0,0,0,0,0,0,0,0,0,0,0,0,0,0,0,0,0,0,0,0,0,0,0,0,0,0,0,0,0,0,0,0,0,0,0,0,0,0,0,0,0,0,0,0,0,0,0,0,0,0,0,0,0,0,0,0,0,0,0,0,0,0,0,0,0,0,0],"sum_hessian":[6.428E3,5.702E3,7.26E2,4.599E3,1.103E3,3.08E2,4.18E2,2.288E3,2.311E3,8.23E2,2.8E2,1.41E2,1.67E2,1.63E2,2.55E2,1.76E2,2.112E3,2.095E3,2.16E2,6.14E2,2.09E2,1.13E2,1.67E2,6.6E1,7.5E1,8.3E1,8.4E1,7.5E1,8.8E1,2.52E2,3E0,8.4E1,9.2E1,1.75E3,3.62E2,4.03E2,1.692E3,1.53E2,6.3E1,4.8E2,1.34E2,9.4E1,1.15E2,4.9E1,6.4E1,1.65E2,2E0,3E0,6.3E1,6.9E1,6E0,6E0,7.7E1,4E0,8E1,5E0,7E1,8.7E1,1E0,2E0,2.5E2,5.7E1,2.7E1,4.5E1,4.7E1,1.437E3,3.13E2,1.17E2,2.45E2,3.28E2,7.5E1,1.91E2,1.501E3,7.2E1,8.1E1,2.5E1,3.8E1,3.53E2,1.27E2,6.8E1,6.6E1,3.9E1,5.5E1,5.1E1,6.4E1,2E1,2.9E1,6.1E1,3E0,1.63E2,2E0,1E0,1E0,2E0,6.1E1,5E0,6.4E1,1E0,5E0,1E0,5E0,4E0,7.3E1,2E0,7.8E1,4E0,1E0,3E0,6.7E1,8.3E1,4E0,2.48E2,2E0],"tree_param":{"num_deleted":"0","num_feature":"798","num_nodes":"113","size_leaf_vector":"1"}},{"base_weights":[-1.4962287E-1,-2.8870723E0,1.2086998E1,-5.9893775E0,8.944379E0,6.6548457E0,2.3246727E1,-1.6057358E0,-1.0801233E1,5.128627E0,2.103233E1,-4.47692E0,8.743558E0,1.7898697E1,2.7103464E1,-3.1126463E0,1.2225762E1,-1.2993547E1,-8.8115436E-1,-6.2085824E0,7.3722053E0,1.55050125E1,2.4982328E1,-1.6843588E1,5.48037E0,-6.689004E-1,1.3947326E1,9.933881E0,2.3786905E1,2.733427E1,2.3418982E-1,-6.027878E0,7.02107E0,5.646658E-1,1.9096375E1,-1.4456436E1,2.050662E0,-4.452995E0,1.0822861E1,-1.3580979E1,6.489596E0,-2.175878E0,1.2633904E1,7.7841806E0,1.9745142E1,2.5429052E1,2.3195953E0,-8.7432414E-1,-1.5297163E0,-1.5483135E0,1.4372853E1,-7.4824376E0,5.7069182E0,7.6563177E0,1.6767216E1,2.4782239E-1,1.7875061E1,1.6901127E1,2.7650717E1,2.7567783E1,2.4023168E-1,-2.460872E-1,2.9950014E-1,1.2202501E-1,4.6666133E-1,-3.5718083E-1,2.8722012E-1,2.780331E-1,7.2386205E-1,-4.6598232E-1,5.5710822E-2,-1.0925656E-1,3.657638E-1,-2.1430121E-1,2.1665896E-1,9.159495E-2,4.9759573E-1,-5.522712E-1,-1.4122395E-1,1.3702986E-3,3.9568335E-1,-3.2116678E-1,1.5099901E-1,1.2827115E-1,4.832192E-1,2.7550015E-1,-3.8998786E-1,4.1395637E-1,7.542978E-1,2.2138892E-1,7.726151E-1,-1.9239594E-1,4.277696E-1,2.3186079E-1,-9.220095E-2,4.7031087E-1,-1.1693141E-1,2.5105286E-1,4.7326374E-1,-3.8534585E-1,3.4336578E-2,-1.3313239E-2,3.529669E-1,8.640581E-2,4.2772028E-1,1.2706496E-1,5.890008E-1,2.0462602E-1,-6.38516E-2,5.652826E-1,2.2578625E-1,6.446937E-1,4.113416E-1,8.38455E-1,1.6015445E-1,8.320419E-1,1.9742768E-1],"categories":[],"categories_nodes":[],"categories_segments":[],"categories_sizes":[],"default_left":[1,1,1,0,1,0,1,1,1,0,1,1,0,1,1,1,0,1,1,1,0,0,1,1,1,0,0,1,1,1,0,1,1,1,0,1,0,1,0,0,0,0,0,0,0,0,0,0,0,0,1,1,0,0,0,1,1,1,0,1,0,0,0,0,0,0,0,0,0,0,0,0,0,0,0,0,0,0,0,0,0,0,0,0,0,0,0,0,0,0,0,0,0,0,0,0,0,0,0,0,0,0,0,0,0,0,0,0,0,0,0,0,0,0,0,0,0],"id":2,"left_children":[1,3,5,7,9,11,13,15,17,19,21,23,25,27,29,31,33,35,37,39,41,43,45,47,49,51,53,55,57,59,-1,61,63,65,67,69,71,73,75,77,79,81,83,85,87,89,91,-1,93,95,97,99,101,103,105,107,109,111,113,115,-1,-1,-1,-1,-1,-1,-1,-1,-1,-1,-1,-1,-1,-1,-1,-1,-1,-1,-1,-1,-1,-1,-1,-1,-1,-1,-1,-1,-1,-1,-1,-1,-1,-1,-1,-1,-1,-1,-1,-1,-1,-1,-1,-1,-1,-1,-1,-1,-1,-1,-1,-1,-1,-1,-1,-1,-1],"loss_changes":[2.1401455E5,1.9168922E5,7.0651016E4,8.724625E4,4.9937344E4,1.8337719E4,7.3939844E3,4.5183625E4,4.2875484E4,2.1055842E4,5.289203E3,1.5484621E4,3.248323E4,7.4081562E3,7.665E2,5.776764E4,1.7054535E4,3.5572562E4,1.5014339E4,1.2913528E4,3.4692492E4,3.4801426E3,1.4596172E3,1.0504085E4,4.397426E3,1.0338427E4,7.4465938E3,5.4568003E3,2.0069648E3,7.585625E2,0E0,5.294603E4,1.0952041E4,9.102204E3,6.404168E3,2.5874719E4,8.357634E3,8.689359E3,3.711039E3,3.640583E3,2.201235E3,1.5180917E4,1.2850109E4,1.3116506E3,1.9321895E3,6.716797E2,5.085027E2,0E0,3.9533813E2,1.6798734E3,1.2906055E2,5.334783E3,4.5888E3,4.183596E3,1.0476656E4,5.2994214E2,2.4875E2,2.3226367E2,2.3617188E2,5.672656E2,0E0,0E0,0E0,0E0,0E0,0E0,0E0,0E0,0E0,0E0,0E0,0E0,0E0,0E0,0E0,0E0,0E0,0E0,0E0,0E0,0E0,0E0,0E0,0E0,0E0,0E0,0E0,0E0,0E0,0E0,0E0,0E0,0E0,0E0,0E0,0E0,0E0,0E0,0E0,0E0,0E0,0E0,0E0,0E0,0E0,0E0,0E0,0E0,0E0,0E0,0E0,0E0,0E0,0E0,0E0,0E0,0E0],"parents":[2147483647,0,0,1,1,2,2,3,3,4,4,5,5,6,6,7,7,8,8,9,9,10,10,11,11,12,12,13,13,14,14,15,15,16,16,17,17,18,18,19,19,20,20,21,21,22,22,23,23,24,24,25,25,26,26,27,27,28,28,29,29,31,31,32,32,33,33,34,34,35,35,36,36,37,37,38,38,39,39,40,40,41,41,42,42,43,43,44,44,45,45,46,46,48,48,49,49,50,50,51,51,52,52,53,53,54,54,55,55,56,56,57,57,58,58,59,59],"right_children":[2,4,6,8,10,12,14,16,18,20,22,24,26,28,30,32,34,36,38,40,42,44,46,48,50,52,54,56,58,60,-1,62,64,66,68,70,72,74,76,78,80,82,84,86,88,90,92,-1,94,96,98,100,102,104,106,108,110,112,114,116,-1,-1,-1,-1,-1,-1,-1,-1,-1,-1,-1,-1,-1,-1,-1,-1,-1,-1,-1,-1,-1,-1,-1,-1,-1,-1,-1,-1,-1,-1,-1,-1,-1,-1,-1,-1,-1,-1,-1,-1,-1,-1,-1,-1,-1,-1,-1,-1,-1,-1,-1,-1,-1,-1,-1,-1,-1],"split_conditions":[1.1618103E-1,1.2362689E-1,1.6907197E-1,4.079496E-2,1.6041455E-1,1.6764985E-1,1.6764985E-1,1.550923E-1,1.6598971E-1,1.4972174E-1,1.3932823E-1,1.550923E-1,1.6943705E-1,1.6560706E-1,1.7780678E-1,1.1018746E-1,1.0918979E-1,2.2007273E-1,2.2672054E-1,1.8477482E-1,1.6549689E-1,1.3026664E-1,1.7042635E-1,1.7760316E-1,1.7880504E-1,1.3615292E-1,1.729966E-1,1.785728E-1,1.1198053E-1,1.8652089E-1,2.3418982E-1,1.5682988E-1,1.7273705E-1,1.7122251E-1,1.0918165E-1,2.1941328E-1,2.2883274E-1,2.2107057E-1,1.3198729E-1,1.8817772E-1,1.8071814E-1,1.7227769E-1,1.5575552E-1,4.7332443E-2,1.8817772E-1,1.7241375E-1,1.06672995E-1,-8.7432414E-1,1.7418328E-1,2.049692E-1,9.489967E-2,1.5791352E-1,1.8017519E-1,1.9014446E-1,1.550923E-1,9.0614356E-2,1.5298453E-1,9.4361246E-2,1.8351048E-1,1.831931E-1,2.4023168E-1,-2.460872E-1,2.9950014E-1,1.2202501E-1,4.6666133E-1,-3.5718083E-1,2.8722012E-1,2.780331E-1,7.2386205E-1,-4.6598232E-1,5.5710822E-2,-1.0925656E-1,3.657638E-1,-2.1430121E-1,2.1665896E-1,9.159495E-2,4.9759573E-1,-5.522712E-1,-1.4122395E-1,1.3702986E-3,3.9568335E-1,-3.2116678E-1,1.5099901E-1,1.2827115E-1,4.832192E-1,2.7550015E-1,-3.8998786E-1,4.1395637E-1,7.542978E-1,2.2138892E-1,7.726151E-1,-1.9239594E-1,4.277696E-1,2.3186079E-1,-9.220095E-2,4.7031087E-1,-1.1693141E-1,2.5105286E-1,4.7326374E-1,-3.8534585E-1,3.4336578E-2,-1.3313239E-2,3.529669E-1,8.640581E-2,4.2772028E-1,1.2706496E-1,5.890008E-1,2.0462602E-1,-6.38516E-2,5.652826E-1,2.2578625E-1,6.446937E-1,4.113416E-1,8.38455E-1,1.6015445E-1,8.320419E-1,1.9742768E-1],"split_indices":[18,669,686,448,228,610,610,672,544,68,68,672,30,596,636,544,596,228,426,707,478,707,736,596,596,668,281,672,672,102,0,707,426,686,610,596,164,680,139,164,164,391,455,232,164,577,27,0,165,479,686,281,281,668,672,672,83,610,18,447,0,0,0,0,0,0,0,0,0,0,0,0,0,0,0,0,0,0,0,0,0,0,0,0,0,0,0,0,0,0,0,0,0,0,0,0,0,0,0,0,0,0,0,0,0,0,0,0,0,0,0,0,0,0,0,0,0],"split_type":[0,0,0,0,0,0,0,0,0,0,0,0,0,0,0,0,0,0,0,0,0,0,0,0,0,0,0,0,0,0,0,0,0,0,0,0,0,0,0,0,0,0,0,0,0,0,0,0,0,0,0,0,0,0,0,0,0,0,0,0,0,0,0,0,0,0,0,0,0,0,0,0,0,0,0,0,0,0,0,0,0,0,0,0,0,0,0,0,0,0,0,0,0,0,0,0,0,0,0,0,0,0,0,0,0,0,0,0,0,0,0,0,0,0,0,0,0],"sum_hessian":[6.387E3,5.22E3,1.167E3,4.136E3,1.084E3,7.86E2,3.81E2,2.165E3,1.971E3,8.25E2,2.59E2,1.24E2,6.62E2,1.62E2,2.19E2,1.953E3,2.12E2,1.614E3,3.57E2,1.36E2,6.89E2,1.1E2,1.49E2,5.5E1,6.9E1,2.36E2,4.26E2,7E1,9.2E1,2.16E2,3E0,1.517E3,4.36E2,7.9E1,1.33E2,1.471E3,1.43E2,2.74E2,8.3E1,8.6E1,5E1,2.45E2,4.44E2,4E1,7E1,1.46E2,3E0,3E1,2.5E1,3.9E1,3E1,1.14E2,1.22E2,1.33E2,2.93E2,3.2E1,3.8E1,3.5E1,5.7E1,2.13E2,3E0,1.336E3,1.81E2,3.25E2,1.11E2,3.3E1,4.6E1,4.6E1,8.7E1,1.38E3,9.1E1,9.2E1,5.1E1,2.23E2,5.1E1,3.6E1,4.7E1,5.5E1,3.1E1,2.6E1,2.4E1,1.12E2,1.33E2,1.31E2,3.13E2,3.8E1,2E0,3.5E1,3.5E1,3E0,1.43E2,2E0,1E0,3E0,2.2E1,4E0,3.5E1,7E0,2.3E1,7E1,4.4E1,6.1E1,6.1E1,7.8E1,5.5E1,5.5E1,2.38E2,8E0,2.4E1,3.4E1,4E0,1.2E1,2.3E1,5.6E1,1E0,2.11E2,2E0],"tree_param":{"num_deleted":"0","num_feature":"798","num_nodes":"117","size_leaf_vector":"1"}},{"base_weights":[3.068927E-1,-2.2962723E0,1.1896702E1,-5.156738E0,8.452735E0,6.80316E0,2.2773788E1,-7.5033445E0,4.221738E0,4.226373E0,1.9903889E1,-1.6100149E0,1.0299108E1,1.5891843E1,2.5655033E1,-9.105214E0,7.053567E0,6.5370435E-1,1.4974627E1,1.060419E0,1.2470135E1,1.3085825E1,2.3751045E1,-7.140321E0,7.772094E0,-4.4048166E0,1.4265196E1,7.7350407E0,2.2016033E1,2.5844778E1,2.0865886E-1,-1.0808872E1,5.4760456E0,-2.128503E0,1.5192459E1,-2.1315382E0,1.110932E1,7.215854E0,1.9549894E1,-2.4223554E0,1.4212047E1,5.304514E0,1.9652523E1,4.8434353E0,1.8590775E1,2.425046E1,4.5603676E0,-1.4548908E1,1.4286411E0,2.8351474E0,1.4500448E1,-1.7678844E1,5.192088E0,6.825292E0,1.662225E1,1.1604352E1,-4.170257E0,2.4138279E1,4.143038E0,2.603897E1,2.0865886E-1,-3.7309042E-1,4.7844507E-2,-7.70461E-2,4.7310874E-1,-3.6514366E-1,1.9515243E-1,2.3716992E-1,6.571688E-1,-1.7095236E-1,2.6919773E-1,1.3413702E-1,5.049019E-1,5.7464354E-2,4.2056477E-1,3.5654706E-1,7.275214E-1,-1.8859816E-1,2.6978794E-1,1.9517821E-1,5.736805E-1,-1.3695008E-1,3.6446202E-1,3.1269985E-1,7.0777154E-1,-5.996415E-1,1.938968E-1,-4.0087655E-1,5.9451807E-1,7.3587996E-1,-1.9750137E-2,3.7574422E-1,-7.659164E-2,-6.0557824E-1,-1.6387644E-1,-1.4908054E-1,2.6258203E-1,-1.3705633E-2,2.5730637E-1,4.762881E-1,-1.9152877E-1,-5.651649E-1,2.1481629E-1,2.6508072E-1,-5.375858E-1,-8.007723E-2,4.6601403E-1,5.266355E-1,-6.04134E-2,4.028183E-1,-2.1741983E-1,2.0287697E-1,-2.0318463E-1,2.2900176E-1,7.4741566E-1,2.6022252E-1,-1.8900208E-1,7.8519684E-1,1.7976257E-1],"categories":[],"categories_nodes":[],"categories_segments":[],"categories_sizes":[],"default_left":[1,1,1,1,1,0,0,1,1,1,0,1,0,0,1,1,1,1,0,1,0,0,1,1,1,0,0,0,0,1,0,1,1,0,0,1,0,1,0,1,0,0,0,0,0,1,0,1,0,1,1,1,1,1,0,1,0,0,0,1,0,0,0,0,0,0,0,0,0,0,0,0,0,0,0,0,0,0,0,0,0,0,0,0,0,0,0,0,0,0,0,0,0,0,0,0,0,0,0,0,0,0,0,0,0,0,0,0,0,0,0,0,0,0,0,0,0,0,0],"id":3,"left_children":[1,3,5,7,9,11,13,15,17,19,21,23,25,27,29,31,33,35,37,39,41,43,45,47,49,51,53,55,57,59,-1,61,63,65,67,69,71,73,75,77,79,81,83,85,87,89,91,93,95,97,99,101,103,105,107,109,111,113,115,117,-1,-1,-1,-1,-1,-1,-1,-1,-1,-1,-1,-1,-1,-1,-1,-1,-1,-1,-1,-1,-1,-1,-1,-1,-1,-1,-1,-1,-1,-1,-1,-1,-1,-1,-1,-1,-1,-1,-1,-1,-1,-1,-1,-1,-1,-1,-1,-1,-1,-1,-1,-1,-1,-1,-1,-1,-1,-1,-1],"loss_changes":[1.931165E5,1.6075902E5,6.4888062E4,9.0901016E4,5.3103875E4,2.3575605E4,7.0081875E3,7.7084484E4,3.1719445E4,2.097067E4,7.453328E3,1.2300575E4,3.3070297E4,5.4744883E3,7.498594E2,7.398745E4,2.454439E4,1.8137207E4,7.171617E3,2.6692443E4,1.1372734E4,4.855715E3,1.6912188E3,9.479887E3,2.8820317E3,1.550593E4,7.7077188E3,2.3516584E3,2.3275664E3,7.689375E2,0E0,5.3817406E4,2.5877057E4,1.3518711E4,8.338465E3,1.9538963E4,4.8994463E3,2.7856946E3,4.359879E3,2.0391947E4,4.492299E3,7.6885107E3,3.7902383E3,1.9391693E3,2.8121992E3,1.2873359E3,3.719031E2,3.9873418E3,3.3236604E3,9.8681165E2,1.1645049E3,1.604375E3,6.1377627E3,9.053936E3,5.9076875E3,1.403189E3,4.1569556E2,5.3947266E2,4.33193E2,5.321875E2,0E0,0E0,0E0,0E0,0E0,0E0,0E0,0E0,0E0,0E0,0E0,0E0,0E0,0E0,0E0,0E0,0E0,0E0,0E0,0E0,0E0,0E0,0E0,0E0,0E0,0E0,0E0,0E0,0E0,0E0,0E0,0E0,0E0,0E0,0E0,0E0,0E0,0E0,0E0,0E0,0E0,0E0,0E0,0E0,0E0,0E0,0E0,0E0,0E0,0E0,0E0,0E0,0E0,0E0,0E0,0E0,0E0,0E0,0E0],"parents":[2147483647,0,0,1,1,2,2,3,3,4,4,5,5,6,6,7,7,8,8,9,9,10,10,11,11,12,12,13,13,14,14,15,15,16,16,17,17,18,18,19,19,20,20,21,21,22,22,23,23,24,24,25,25,26,26,27,27,28,28,29,29,31,31,32,32,33,33,34,34,35,35,36,36,37,37,38,38,39,39,40,40,41,41,42,42,43,43,44,44,45,45,46,46,47,47,48,48,49,49,50,50,51,51,52,52,53,53,54,54,55,55,56,56,57,57,58,58,59,59],"right_children":[2,4,6,8,10,12,14,16,18,20,22,24,26,28,30,32,34,36,38,40,42,44,46,48,50,52,54,56,58,60,-1,62,64,66,68,70,72,74,76,78,80,82,84,86,88,90,92,94,96,98,100,102,104,106,108,110,112,114,116,118,-1,-1,-1,-1,-1,-1,-1,-1,-1,-1,-1,-1,-1,-1,-1,-1,-1,-1,-1,-1,-1,-1,-1,-1,-1,-1,-1,-1,-1,-1,-1,-1,-1,-1,-1,-1,-1,-1,-1,-1,-1,-1,-1,-1,-1,-1,-1,-1,-1,-1,-1,-1,-1,-1,-1,-1,-1,-1,-1],"split_conditions":[1.2727803E-1,1.2362689E-1,1.6764985E-1,1.2018887E-1,1.3696705E-1,1.6943705E-1,1.5612578E-1,1.550923E-1,1.7273705E-1,1.6415687E-1,1.3641164E-1,1.7726117E-1,1.4709702E-1,2.370584E-1,1.7740797E-1,1.6936572E-1,1.5542012E-1,1.566168E-1,1.402339E-1,1.4723122E-1,1.5575552E-1,1.24671385E-1,1.665891E-1,1.2888777E-1,1.8679528E-1,2.346228E-1,1.2640344E-1,2.1410877E-1,1.7993379E-1,1.7394432E-1,2.0865886E-1,1.6345245E-1,1.7088187E-1,2.2549222E-1,2.2873877E-1,1.7586471E-1,1.3265233E-1,1.8361256E-1,1.3380243E-1,1.2773426E-1,1.8055232E-1,1.7279163E-1,1.20843284E-1,4.261241E-1,2.0502642E-1,1.9423656E-1,1.8635474E-1,1.24661945E-1,2.0731008E-1,2.0248605E-1,1.7662278E-1,1.9452618E-1,1.16198726E-1,1.7218505E-1,4.7720402E-2,1.7829101E-1,2.1840829E-1,1.6225563E-1,1.9883959E-1,1.7940995E-1,2.0865886E-1,-3.7309042E-1,4.7844507E-2,-7.70461E-2,4.7310874E-1,-3.6514366E-1,1.9515243E-1,2.3716992E-1,6.571688E-1,-1.7095236E-1,2.6919773E-1,1.3413702E-1,5.049019E-1,5.7464354E-2,4.2056477E-1,3.5654706E-1,7.275214E-1,-1.8859816E-1,2.6978794E-1,1.9517821E-1,5.736805E-1,-1.3695008E-1,3.6446202E-1,3.1269985E-1,7.0777154E-1,-5.996415E-1,1.938968E-1,-4.0087655E-1,5.9451807E-1,7.3587996E-1,-1.9750137E-2,3.7574422E-1,-7.659164E-2,-6.0557824E-1,-1.6387644E-1,-1.4908054E-1,2.6258203E-1,-1.3705633E-2,2.5730637E-1,4.762881E-1,-1.9152877E-1,-5.651649E-1,2.1481629E-1,2.6508072E-1,-5.375858E-1,-8.007723E-2,4.6601403E-1,5.266355E-1,-6.04134E-2,4.028183E-1,-2.1741983E-1,2.0287697E-1,-2.0318463E-1,2.2900176E-1,7.4741566E-1,2.6022252E-1,-1.8900208E-1,7.8519684E-1,1.7976257E-1],"split_indices":[18,669,610,544,518,30,400,672,426,680,228,668,400,530,187,228,610,478,718,228,455,124,519,345,191,530,281,530,18,218,0,349,124,530,530,759,172,349,545,544,124,172,478,360,79,190,91,191,281,281,112,159,610,345,233,158,153,188,18,220,0,0,0,0,0,0,0,0,0,0,0,0,0,0,0,0,0,0,0,0,0,0,0,0,0,0,0,0,0,0,0,0,0,0,0,0,0,0,0,0,0,0,0,0,0,0,0,0,0,0,0,0,0,0,0,0,0,0,0],"split_type":[0,0,0,0,0,0,0,0,0,0,0,0,0,0,0,0,0,0,0,0,0,0,0,0,0,0,0,0,0,0,0,0,0,0,0,0,0,0,0,0,0,0,0,0,0,0,0,0,0,0,0,0,0,0,0,0,0,0,0,0,0,0,0,0,0,0,0,0,0,0,0,0,0,0,0,0,0,0,0,0,0,0,0,0,0,0,0,0,0,0,0,0,0,0,0,0,0,0,0,0,0,0,0,0,0,0,0,0,0,0,0,0,0,0,0,0,0,0,0],"sum_hessian":[6.399E3,5.226E3,1.173E3,4.128E3,1.098E3,8E2,3.73E2,3.302E3,8.26E2,8.03E2,2.95E2,2.35E2,5.65E2,1.12E2,2.61E2,2.975E3,3.27E2,6.21E2,2.05E2,5.81E2,2.22E2,1.08E2,1.87E2,1.48E2,8.7E1,1.2E2,4.45E2,4.9E1,6.3E1,2.58E2,3E0,2.664E3,3.11E2,1.54E2,1.73E2,4.91E2,1.3E2,7.7E1,1.28E2,4.6E2,1.21E2,1.12E2,1.1E2,4.4E1,6.4E1,1.82E2,5E0,7.9E1,6.9E1,5.1E1,3.6E1,5E1,7E1,1.08E2,3.37E2,3.7E1,1.2E1,5.6E1,7E0,2.55E2,3E0,2.355E3,3.09E2,1.75E2,1.36E2,7.1E1,8.3E1,8.4E1,8.9E1,3.72E2,1.19E2,6.1E1,6.9E1,4.4E1,3.3E1,5E1,7.8E1,3.44E2,1.16E2,4.8E1,7.3E1,4.6E1,6.6E1,3.4E1,7.6E1,2E0,4.2E1,2E0,6.2E1,1.8E2,2E0,2E0,3E0,4.8E1,3.1E1,3.7E1,3.2E1,3.3E1,1.8E1,3.4E1,2E0,4.8E1,2E0,6.1E1,9E0,5.2E1,5.6E1,3.21E2,1.6E1,3.4E1,3E0,2E0,1E1,3E0,5.3E1,5E0,2E0,2.53E2,2E0],"tree_param":{"num_deleted":"0","num_feature":"798","num_nodes":"119","size_leaf_vector":"1"}},{"base_weights":[1.9083852E-1,-1.7210217E0,1.5184834E1,-4.101671E0,8.252776E0,7.2913246E0,2.2292645E1,-1.0966895E-1,-8.44399E0,4.2906775E0,1.9249882E1,-5.805919E0,1.4666276E1,1.6263338E1,2.5573143E1,-8.61253E0,2.0283267E0,-9.795803E0,3.1712966E0,-2.474692E0,7.7924657E0,1.2478601E1,2.3258673E1,-1.6836754E1,3.6881151E0,5.535959E0,2.0332018E1,1.029275E1,2.1998228E1,2.5775436E1,6.6289777E-1,-2.5514637E1,-5.3777776E0,-1.2701646E1,3.2797256E0,-1.1294003E1,4.299404E0,-4.808446E0,1.1192851E1,-9.183818E0,6.7213316E0,-5.1820683E0,1.1831809E1,2.383313E0,1.943098E1,3.1605225E0,2.3695011E1,2.3645799E-1,-1.8328354E1,2.5118628E0,6.5640557E-1,9.497243E0,-3.4719296E0,-1.9018874E-1,2.0777412E1,1.189041E1,-3.3757124E0,2.282871E1,2.0406866E-1,2.59644E1,2.3981602E-1,1.6491519E-1,-1.350848E-1,-9.565522E-1,-3.035412E-1,-4.3200564E-1,-1.670642E-2,-6.2442404E-1,-2.554298E-2,-2.0780718E-1,1.5704274E-1,-3.749986E-1,7.821062E-2,-6.6128254E-2,3.8676324E-1,-3.350035E-1,3.4566376E-1,1.609319E-1,5.853412E-1,-5.049627E-1,-5.6569066E-2,-9.153661E-2,3.7960303E-1,-3.8406557E-1,1.6068837E-1,1.532894E-1,4.4206202E-1,-2.1937348E-1,3.7191024E-1,6.111265E-1,-2.0351936E-1,-1.687089E-1,2.0287405E-1,7.1943456E-1,-2.6847381E-2,-2.2245479E-1,-6.562186E-1,3.0494082E-1,-5.833908E-3,-2.4160668E-1,3.1686777E-1,-5.302372E-1,7.148174E-2,-7.971878E-3,6.329478E-1,-2.1396235E-1,3.8935614E-1,6.896793E-2,-2.1720855E-1,1.842897E-1,7.061101E-1,7.831377E-1,1.856324E-1],"categories":[],"categories_nodes":[],"categories_segments":[],"categories_sizes":[],"default_left":[1,1,1,0,1,0,1,0,1,0,0,1,1,1,1,0,0,1,0,1,0,0,0,0,1,1,0,1,1,1,0,1,0,1,0,1,1,1,0,0,0,1,0,0,1,0,1,0,1,1,0,0,1,0,0,0,0,0,0,1,0,0,0,0,0,0,0,0,0,0,0,0,0,0,0,0,0,0,0,0,0,0,0,0,0,0,0,0,0,0,0,0,0,0,0,0,0,0,0,0,0,0,0,0,0,0,0,0,0,0,0,0,0],"id":4,"left_children":[1,3,5,7,9,11,13,15,17,19,21,23,25,27,29,31,33,35,37,39,41,43,45,47,49,51,53,55,57,59,61,63,65,67,69,71,73,75,77,79,81,83,85,87,89,91,93,-1,95,97,-1,99,101,-1,103,105,107,109,-1,111,-1,-1,-1,-1,-1,-1,-1,-1,-1,-1,-1,-1,-1,-1,-1,-1,-1,-1,-1,-1,-1,-1,-1,-1,-1,-1,-1,-1,-1,-1,-1,-1,-1,-1,-1,-1,-1,-1,-1,-1,-1,-1,-1,-1,-1,-1,-1,-1,-1,-1,-1,-1,-1],"loss_changes":[1.8377789E5,1.3504289E5,4.0514E4,7.958198E4,4.76719E4,3.3409227E4,7.119953E3,4.352001E4,3.4559094E4,1.9137832E4,7.5817188E3,1.3152985E4,1.1319777E4,4.4645547E3,1.2175156E3,2.616104E4,3.530412E4,4.164992E4,1.4776108E4,1.7090178E4,2.7942691E4,7.6741797E3,1.5124141E3,2.2829453E3,1.4001356E3,3.101695E3,1.7473242E3,1.5469302E3,7.154883E2,6.089219E2,9.9670425E1,7.2297812E3,1.7607908E4,1.4402488E4,3.523565E4,2.9889156E4,1.0646414E4,1.2173558E4,5.471008E3,8.899218E3,6.8213066E3,1.0267111E4,7.8491836E3,4.5568115E3,1.7397637E3,1.9622986E2,1.2668672E3,0E0,1.9659609E3,1.3481956E3,0E0,1.2065771E3,2.287206E3,0E0,9.103281E2,1.3758945E3,1.9208548E2,6.2360547E2,0E0,5.03875E2,0E0,0E0,0E0,0E0,0E0,0E0,0E0,0E0,0E0,0E0,0E0,0E0,0E0,0E0,0E0,0E0,0E0,0E0,0E0,0E0,0E0,0E0,0E0,0E0,0E0,0E0,0E0,0E0,0E0,0E0,0E0,0E0,0E0,0E0,0E0,0E0,0E0,0E0,0E0,0E0,0E0,0E0,0E0,0E0,0E0,0E0,0E0,0E0,0E0,0E0,0E0,0E0,0E0],"parents":[2147483647,0,0,1,1,2,2,3,3,4,4,5,5,6,6,7,7,8,8,9,9,10,10,11,11,12,12,13,13,14,14,15,15,16,16,17,17,18,18,19,19,20,20,21,21,22,22,23,23,24,24,25,25,26,26,27,27,28,28,29,29,30,30,31,31,32,32,33,33,34,34,35,35,36,36,37,37,38,38,39,39,40,40,41,41,42,42,43,43,44,44,45,45,46,46,48,48,49,49,51,51,52,52,54,54,55,55,56,56,57,57,59,59],"right_children":[2,4,6,8,10,12,14,16,18,20,22,24,26,28,30,32,34,36,38,40,42,44,46,48,50,52,54,56,58,60,62,64,66,68,70,72,74,76,78,80,82,84,86,88,90,92,94,-1,96,98,-1,100,102,-1,104,106,108,110,-1,112,-1,-1,-1,-1,-1,-1,-1,-1,-1,-1,-1,-1,-1,-1,-1,-1,-1,-1,-1,-1,-1,-1,-1,-1,-1,-1,-1,-1,-1,-1,-1,-1,-1,-1,-1,-1,-1,-1,-1,-1,-1,-1,-1,-1,-1,-1,-1,-1,-1,-1,-1,-1,-1],"split_conditions":[1.6907197E-1,1.2362689E-1,1.6560706E-1,4.073677E-2,1.4375809E-1,1.3254029E-1,1.1263612E-1,8.1789225E-2,2.2501843E-1,1.5575552E-1,1.3069779E-1,1.7547062E-1,1.218497E-1,1.6920754E-1,1.8904588E-1,2.4936868E-1,1.1019169E-1,2.274609E-1,1.6338356E-1,1.6386747E-1,1.5661661E-1,1.3026664E-1,1.8212235E-1,2.2539042E-1,1.8466999E-1,1.1143957E-1,1.783177E-1,1.0918165E-1,1.640703E-1,1.782089E-1,1.8918614E-1,1.9383541E-1,1.765371E-1,1.8309936E-1,1.1278867E-1,2.195868E-1,2.2698252E-1,2.2591557E-1,2.2951606E-1,1.7376053E-1,1.10653006E-1,1.8021251E-1,1.3509145E-1,1.300853E-1,1.7043532E-1,1.7704709E-1,1.778133E-1,2.3645799E-1,1.0130915E-1,1.0074111E-1,6.5640557E-1,1.7579682E-1,2.2319067E-1,-1.9018874E-1,2.0319076E-1,1.6704777E-1,1.0994699E-1,1.8561655E-1,2.0406866E-1,1.9189578E-1,2.3981602E-1,1.6491519E-1,-1.350848E-1,-9.565522E-1,-3.035412E-1,-4.3200564E-1,-1.670642E-2,-6.2442404E-1,-2.554298E-2,-2.0780718E-1,1.5704274E-1,-3.749986E-1,7.821062E-2,-6.6128254E-2,3.8676324E-1,-3.350035E-1,3.4566376E-1,1.609319E-1,5.853412E-1,-5.049627E-1,-5.6569066E-2,-9.153661E-2,3.7960303E-1,-3.8406557E-1,1.6068837E-1,1.532894E-1,4.4206202E-1,-2.1937348E-1,3.7191024E-1,6.111265E-1,-2.0351936E-1,-1.687089E-1,2.0287405E-1,7.1943456E-1,-2.6847381E-2,-2.2245479E-1,-6.562186E-1,3.0494082E-1,-5.833908E-3,-2.4160668E-1,3.1686777E-1,-5.302372E-1,7.148174E-2,-7.971878E-3,6.329478E-1,-2.1396235E-1,3.8935614E-1,6.896793E-2,-2.1720855E-1,1.842897E-1,7.061101E-1,7.831377E-1,1.856324E-1],"split_indices":[686,669,596,233,68,672,610,544,718,455,578,610,610,672,533,368,124,191,426,172,578,707,342,159,564,610,451,610,777,185,29,680,349,707,345,228,345,759,759,391,391,228,544,124,454,32,231,0,596,596,0,189,672,0,662,568,672,546,0,162,0,0,0,0,0,0,0,0,0,0,0,0,0,0,0,0,0,0,0,0,0,0,0,0,0,0,0,0,0,0,0,0,0,0,0,0,0,0,0,0,0,0,0,0,0,0,0,0,0,0,0,0,0],"split_type":[0,0,0,0,0,0,0,0,0,0,0,0,0,0,0,0,0,0,0,0,0,0,0,0,0,0,0,0,0,0,0,0,0,0,0,0,0,0,0,0,0,0,0,0,0,0,0,0,0,0,0,0,0,0,0,0,0,0,0,0,0,0,0,0,0,0,0,0,0,0,0,0,0,0,0,0,0,0,0,0,0,0,0,0,0,0,0,0,0,0,0,0,0,0,0,0,0,0,0,0,0,0,0,0,0,0,0,0,0,0,0,0,0],"sum_hessian":[6.409E3,5.685E3,7.24E2,4.59E3,1.095E3,3.44E2,3.8E2,2.392E3,2.198E3,8.06E2,2.89E2,1.24E2,2.2E2,1.36E2,2.44E2,4.8E2,1.912E3,1.969E3,2.29E2,2.75E2,5.31E2,1.09E2,1.8E2,5.7E1,6.7E1,8.5E1,1.35E2,6.8E1,6.8E1,2.42E2,2E0,7.6E1,4.04E2,1.49E2,1.763E3,1.78E3,1.89E2,1.15E2,1.14E2,1.59E2,1.16E2,1.26E2,4.05E2,4.5E1,6.4E1,4E0,1.76E2,3E0,5.4E1,6.4E1,3E0,5.9E1,2.6E1,2E0,1.33E2,6.1E1,7E0,6.4E1,4E0,2.39E2,3E0,1E0,1E0,5.3E1,2.3E1,1.4E2,2.64E2,8.8E1,6.1E1,2.83E2,1.48E3,1.638E3,1.42E2,1.08E2,8.1E1,8.3E1,3.2E1,6.8E1,4.6E1,7.7E1,8.2E1,4.4E1,7.2E1,7.3E1,5.3E1,1.23E2,2.82E2,2.3E1,2.2E1,6.2E1,2E0,1E0,3E0,1.74E2,2E0,1.4E1,4E1,1.6E1,4.8E1,3E0,5.6E1,7E0,1.9E1,2E0,1.31E2,3E0,5.8E1,3E0,4E0,3E0,6.1E1,2.37E2,2E0],"tree_param":{"num_deleted":"0","num_feature":"798","num_nodes":"113","size_leaf_vector":"1"}},{"base_weights":[-9.6031114E-2,-1.7885145E0,1.4801065E1,-4.271926E0,8.421428E0,6.9723964E0,2.0293524E1,-6.750955E-2,-8.633057E0,4.630965E0,1.9085667E1,7.9726496E0,-9.529953E0,2.0578806E1,-3.6072445E-1,-7.832791E0,2.0332792E0,-9.904045E0,3.8768008E0,-2.7878845E0,7.7342334E0,1.2734933E1,2.3165562E1,-1.9609577E1,8.48624E0,4.599701E-1,-1.2209594E1,2.0859154E1,-4.731355E0,-1.2122562E1,3.4072042E0,-1.3571216E1,3.2895062E0,-1.1474576E1,3.770623E0,-1.0799211E0,1.2879389E1,-8.507474E0,5.8485465E0,-4.179762E0,1.1117674E1,4.13767E0,1.8995602E1,1.8748777E1,2.5402704E1,-1.552359E-1,-6.577411E-1,9.152703E0,-1.0599278E1,1.705402E-1,-1.3893805E1,2.1026144E1,-2.1070182E-1,1.271957E-1,-2.4102367E-1,-4.6223143E-1,-1.0149236E-1,-1.5675876E-1,2.8730518E-1,-7.0399654E-1,-4.825353E-2,-2.2870633E-1,1.5773626E-1,-3.7681973E-1,6.118326E-2,-6.428498E-2,4.110734E-1,-2.160464E-1,2.5387818E-1,2.6337412E-1,5.349557E-1,-4.0079266E-1,-2.637755E-2,-4.0211957E-2,3.6339897E-1,-3.897592E-1,1.9393663E-1,1.3604876E-1,4.242906E-1,-1.249651E-1,3.17408E-1,3.3757585E-1,6.810935E-1,3.8658085E-1,6.885224E-1,1.9830939E-1,7.752935E-1,-3.129355E-1,2.957333E-1,1.9465415E-1,-4.9225256E-1,1.5997009E-1,-4.7348753E-1,6.3576245E-1,-2.000775E-1],"categories":[],"categories_nodes":[],"categories_segments":[],"categories_sizes":[],"default_left":[1,1,1,0,1,1,1,0,1,0,0,0,0,1,0,1,0,1,1,1,0,0,0,0,1,0,0,1,0,1,0,1,0,1,1,1,0,1,0,1,0,0,0,1,0,0,0,0,0,0,0,1,0,0,0,0,0,0,0,0,0,0,0,0,0,0,0,0,0,0,0,0,0,0,0,0,0,0,0,0,0,0,0,0,0,0,0,0,0,0,0,0,0,0,0],"id":5,"left_children":[1,3,5,7,9,11,13,15,17,19,21,23,25,27,-1,29,31,33,35,37,39,41,43,45,47,-1,49,51,53,55,57,59,61,63,65,67,69,71,73,75,77,79,81,83,85,-1,-1,87,89,-1,91,93,-1,-1,-1,-1,-1,-1,-1,-1,-1,-1,-1,-1,-1,-1,-1,-1,-1,-1,-1,-1,-1,-1,-1,-1,-1,-1,-1,-1,-1,-1,-1,-1,-1,-1,-1,-1,-1,-1,-1,-1,-1,-1,-1],"loss_changes":[1.6212142E5,1.4643856E5,2.806561E4,8.517018E4,4.5588938E4,4.565756E3,3.797E3,3.8612996E4,3.629014E4,1.92455E4,7.3744375E3,3.8070693E3,1.253154E3,2.8092344E3,0E0,2.4342676E4,3.6564637E4,4.449958E4,9.429431E3,1.2250775E4,2.378923E4,6.272709E3,1.2924219E3,5.364502E1,3.3151191E3,0E0,5.310476E2,1.9077031E3,1.8221265E2,1.0427223E4,7.5063516E3,1.641646E4,3.7094656E4,2.7281406E4,1.2597883E4,8.0639062E3,1.3664277E3,5.503383E3,4.4748955E3,1.2371783E4,9.076852E3,2.772266E3,1.6966445E3,1.2809004E3,7.8922656E2,0E0,0E0,3.4858047E3,9.9985156E2,0E0,5.926448E2,1.8692969E3,0E0,0E0,0E0,0E0,0E0,0E0,0E0,0E0,0E0,0E0,0E0,0E0,0E0,0E0,0E0,0E0,0E0,0E0,0E0,0E0,0E0,0E0,0E0,0E0,0E0,0E0,0E0,0E0,0E0,0E0,0E0,0E0,0E0,0E0,0E0,0E0,0E0,0E0,0E0,0E0,0E0,0E0,0E0],"parents":[2147483647,0,0,1,1,2,2,3,3,4,4,5,5,6,6,7,7,8,8,9,9,10,10,11,11,12,12,13,13,15,15,16,16,17,17,18,18,19,19,20,20,21,21,22,22,23,23,24,24,26,26,27,27,28,28,29,29,30,30,31,31,32,32,33,33,34,34,35,35,36,36,37,37,38,38,39,39,40,40,41,41,42,42,43,43,44,44,47,47,48,48,50,50,51,51],"right_children":[2,4,6,8,10,12,14,16,18,20,22,24,26,28,-1,30,32,34,36,38,40,42,44,46,48,-1,50,52,54,56,58,60,62,64,66,68,70,72,74,76,78,80,82,84,86,-1,-1,88,90,-1,92,94,-1,-1,-1,-1,-1,-1,-1,-1,-1,-1,-1,-1,-1,-1,-1,-1,-1,-1,-1,-1,-1,-1,-1,-1,-1,-1,-1,-1,-1,-1,-1,-1,-1,-1,-1,-1,-1,-1,-1,-1,-1,-1,-1],"split_conditions":[1.690941E-1,1.2362689E-1,1.6163906E-1,4.0624503E-2,1.600615E-1,1.16078556E-1,1.8969439E-1,8.2871445E-2,2.2556683E-1,1.6549689E-1,1.3532285E-1,1.808746E-1,2.1299534E-1,1.7801386E-1,-3.6072445E-1,1.7898414E-1,1.0781391E-1,2.2501843E-1,2.2524208E-1,1.7279163E-1,1.5682988E-1,1.6936572E-1,1.3869885E-1,1.5939048E-1,1.5929137E-1,4.599701E-1,2.1976902E-1,1.9921082E-1,1.8740287E-1,1.04571335E-1,1.12361975E-1,1.0788184E-1,1.1290046E-1,2.185673E-1,1.6697325E-1,2.274609E-1,2.2628437E-1,1.714891E-1,1.0262724E-1,1.8436548E-1,1.5575552E-1,1.3069779E-1,1.2455404E-1,1.1839117E-1,1.8212235E-1,-1.552359E-1,-6.577411E-1,1.9933154E-1,1.8635166E-1,1.705402E-1,2.1379845E-1,1.9070065E-1,-2.1070182E-1,1.271957E-1,-2.4102367E-1,-4.6223143E-1,-1.0149236E-1,-1.5675876E-1,2.8730518E-1,-7.0399654E-1,-4.825353E-2,-2.2870633E-1,1.5773626E-1,-3.7681973E-1,6.118326E-2,-6.428498E-2,4.110734E-1,-2.160464E-1,2.5387818E-1,2.6337412E-1,5.349557E-1,-4.0079266E-1,-2.637755E-2,-4.0211957E-2,3.6339897E-1,-3.897592E-1,1.9393663E-1,1.3604876E-1,4.242906E-1,-1.249651E-1,3.17408E-1,3.3757585E-1,6.810935E-1,3.8658085E-1,6.885224E-1,1.9830939E-1,7.752935E-1,-3.129355E-1,2.957333E-1,1.9465415E-1,-4.9225256E-1,1.5997009E-1,-4.7348753E-1,6.3576245E-1,-2.000775E-1],"split_indices":[596,669,400,233,68,400,580,544,345,478,707,361,86,209,0,545,68,718,281,172,707,228,578,38,396,0,40,695,123,172,128,707,30,707,544,191,30,455,544,578,455,578,578,124,342,0,0,255,173,0,94,278,0,0,0,0,0,0,0,0,0,0,0,0,0,0,0,0,0,0,0,0,0,0,0,0,0,0,0,0,0,0,0,0,0,0,0,0,0,0,0,0,0,0,0],"split_type":[0,0,0,0,0,0,0,0,0,0,0,0,0,0,0,0,0,0,0,0,0,0,0,0,0,0,0,0,0,0,0,0,0,0,0,0,0,0,0,0,0,0,0,0,0,0,0,0,0,0,0,0,0,0,0,0,0,0,0,0,0,0,0,0,0,0,0,0,0,0,0,0,0,0,0,0,0,0,0,0,0,0,0,0,0,0,0,0,0,0,0,0,0,0,0],"sum_hessian":[6.428E3,5.773E3,6.55E2,4.644E3,1.129E3,2.71E2,3.84E2,2.365E3,2.279E3,8.34E2,2.95E2,2.56E2,1.5E1,3.81E2,3E0,5.03E2,1.862E3,2.069E3,2.1E2,2.46E2,5.88E2,1.17E2,1.78E2,4E0,2.52E2,1E0,1.4E1,3.77E2,4E0,3.64E2,1.39E2,1.38E2,1.724E3,1.856E3,2.13E2,1.36E2,7.4E1,1.48E2,9.8E1,1.3E2,4.58E2,5E1,6.7E1,6.3E1,1.15E2,1E0,3E0,2.44E2,8E0,1E0,1.3E1,3.75E2,2E0,1E0,3E0,2.64E2,1E2,5.8E1,8.1E1,7.5E1,6.3E1,2.63E2,1.461E3,1.718E3,1.38E2,1.34E2,7.9E1,8.3E1,5.3E1,4.2E1,3.2E1,9E1,5.8E1,4.6E1,5.2E1,7.1E1,5.9E1,1.45E2,3.13E2,2.2E1,2.8E1,2.3E1,4.4E1,2.8E1,3.5E1,3E0,1.12E2,8E0,2.36E2,2E0,6E0,1E0,1.2E1,3.73E2,2E0],"tree_param":{"num_deleted":"0","num_feature":"798","num_nodes":"95","size_leaf_vector":"1"}},{"base_weights":[6.1465684E-2,-2.3733077E0,1.1352056E1,-4.962797E0,7.6042757E0,6.363272E0,2.1419079E1,-1.06257275E-1,-9.123337E0,3.944849E0,1.8394537E1,-5.744438E0,8.230481E0,1.5563349E1,2.4686092E1,-1.4591584E1,1.2322997E0,-1.0742353E1,4.4604516E0,8.768289E-1,1.21687355E1,1.2332476E1,2.2264236E1,-1.654688E1,6.753037E0,3.046838E-1,1.2320513E1,7.695269E0,2.2355976E1,1.5508117E-1,2.482898E1,-2.405701E1,-5.1784368E0,-9.2497885E-1,1.0303234E1,-1.1978843E1,2.8714435E0,-8.439618E-1,1.4321552E1,-3.1172845E0,1.3646108E1,5.6344466E0,1.7667295E1,5.6443667E0,1.9555126E1,1.8516796E1,2.5222998E1,3.754382E-1,-1.7879665E1,-2.1941584E-1,7.8533607E0,-4.476491E0,9.02652E0,5.622178E0,1.4921714E1,8.982832E0,-2.601469E0,2.0817108E-1,2.3149147E1,1.6187118E-1,2.4971409E1,-8.876375E-1,-3.5698047E-1,-4.2078924E-1,7.814384E-2,-9.080105E-2,3.4610435E-1,3.0420208E-2,4.255709E-1,-4.1545877E-1,-9.245687E-2,-9.357967E-2,3.6531487E-1,-2.1216427E-1,1.7156164E-1,1.0434183E-1,5.9927374E-1,-2.003599E-1,1.9952284E-1,2.088195E-1,5.733736E-1,-8.971321E-2,3.2406595E-1,3.0825803E-1,6.5143275E-1,-8.734125E-2,3.404968E-1,6.1243874E-1,-3.8647383E-2,3.4062934E-1,6.8541044E-1,7.627904E-1,1.068758E-1,-5.7060355E-1,2.2403808E-1,2.7277672E-1,-2.1364671E-1,-3.4082735E-1,1.3565059E-1,-2.1258656E-2,4.1180795E-1,2.0655082E-1,-4.8865843E-1,1.2283417E-1,5.3767085E-1,7.257591E-2,3.4936002E-1,1.5924144E-1,-1.3469078E-1,1.8797183E-1,7.146492E-1,7.5338686E-1,1.6976286E-1],"categories":[],"categories_nodes":[],"categories_segments":[],"categories_sizes":[],"default_left":[1,1,1,0,1,0,1,0,1,1,0,1,0,1,0,1,1,1,1,1,0,1,1,0,0,1,0,1,0,0,0,1,0,1,0,1,0,0,0,1,0,0,0,0,1,0,1,0,1,0,1,1,0,0,0,0,0,0,0,0,1,0,0,0,0,0,0,0,0,0,0,0,0,0,0,0,0,0,0,0,0,0,0,0,0,0,0,0,0,0,0,0,0,0,0,0,0,0,0,0,0,0,0,0,0,0,0,0,0,0,0,0,0],"id":6,"left_children":[1,3,5,7,9,11,13,15,17,19,21,23,25,27,29,31,33,35,37,39,41,43,45,47,49,51,53,55,57,-1,59,61,63,65,67,69,71,73,75,77,79,81,83,85,87,89,91,-1,93,-1,95,97,99,101,103,105,107,-1,109,-1,111,-1,-1,-1,-1,-1,-1,-1,-1,-1,-1,-1,-1,-1,-1,-1,-1,-1,-1,-1,-1,-1,-1,-1,-1,-1,-1,-1,-1,-1,-1,-1,-1,-1,-1,-1,-1,-1,-1,-1,-1,-1,-1,-1,-1,-1,-1,-1,-1,-1,-1,-1,-1],"loss_changes":[1.7557825E5,1.3578453E5,5.6765453E4,8.429774E4,4.2690957E4,1.7206465E4,6.7898438E3,3.7362035E4,4.9464797E4,2.0426477E4,6.153008E3,1.3882074E4,2.132648E4,7.149922E3,5.381406E2,1.4398633E4,3.452842E4,3.3835688E4,1.2565852E4,3.0184691E4,7.804877E3,5.154963E3,1.3735312E3,2.3540557E3,8.003889E2,9.423047E3,7.478E3,8.851184E2,7.3202734E2,0E0,5.2125E2,5.0945977E3,5.7523335E3,3.738362E4,1.221168E4,3.0583E4,9.403715E3,6.457595E3,5.080707E3,1.5733674E4,5.0198164E3,4.578573E3,3.3369375E3,2.864315E3,9.5787305E2,2.128752E3,3.0583203E2,0E0,1.6741523E3,0E0,8.99813E2,9.095667E3,3.670462E3,3.5155608E3,1.0063102E4,9.8541797E2,1.43311E2,0E0,6.3416797E2,0E0,5.0001562E2,0E0,0E0,0E0,0E0,0E0,0E0,0E0,0E0,0E0,0E0,0E0,0E0,0E0,0E0,0E0,0E0,0E0,0E0,0E0,0E0,0E0,0E0,0E0,0E0,0E0,0E0,0E0,0E0,0E0,0E0,0E0,0E0,0E0,0E0,0E0,0E0,0E0,0E0,0E0,0E0,0E0,0E0,0E0,0E0,0E0,0E0,0E0,0E0,0E0,0E0,0E0,0E0],"parents":[2147483647,0,0,1,1,2,2,3,3,4,4,5,5,6,6,7,7,8,8,9,9,10,10,11,11,12,12,13,13,14,14,15,15,16,16,17,17,18,18,19,19,20,20,21,21,22,22,23,23,24,24,25,25,26,26,27,27,28,28,30,30,31,31,32,32,33,33,34,34,35,35,36,36,37,37,38,38,39,39,40,40,41,41,42,42,43,43,44,44,45,45,46,46,48,48,50,50,51,51,52,52,53,53,54,54,55,55,56,56,58,58,60,60],"right_children":[2,4,6,8,10,12,14,16,18,20,22,24,26,28,30,32,34,36,38,40,42,44,46,48,50,52,54,56,58,-1,60,62,64,66,68,70,72,74,76,78,80,82,84,86,88,90,92,-1,94,-1,96,98,100,102,104,106,108,-1,110,-1,112,-1,-1,-1,-1,-1,-1,-1,-1,-1,-1,-1,-1,-1,-1,-1,-1,-1,-1,-1,-1,-1,-1,-1,-1,-1,-1,-1,-1,-1,-1,-1,-1,-1,-1,-1,-1,-1,-1,-1,-1,-1,-1,-1,-1,-1,-1,-1,-1,-1,-1,-1,-1],"split_conditions":[1.2727803E-1,1.2362689E-1,1.6907197E-1,4.0043164E-2,1.6635825E-1,1.6920754E-1,1.6163906E-1,1.08710974E-1,2.222226E-1,1.6415687E-1,1.302471E-1,1.7969505E-1,1.5132552E-1,1.690941E-1,1.6772492E-1,1.3711183E-1,1.2018887E-1,2.1560672E-1,2.2350101E-1,1.6041455E-1,1.5575552E-1,1.8021251E-1,1.411907E-1,1.9127242E-1,1.9620746E-1,1.9940685E-1,1.880546E-1,1.20533E-1,1.9021678E-1,1.5508117E-1,1.502926E-1,1.714891E-1,1.08168736E-1,1.5496804E-1,1.1084049E-1,1.6300312E-1,2.232092E-1,1.6347094E-1,9.280202E-2,1.5770425E-1,1.411907E-1,1.7279163E-1,1.14915766E-1,1.3532285E-1,1.8365657E-1,1.3641164E-1,1.8785669E-1,3.754382E-1,1.8806437E-1,-2.1941584E-1,1.6397586E-1,1.7534588E-1,1.13503106E-1,9.478889E-2,1.6560706E-1,1.0227721E-1,2.2105363E-1,2.0817108E-1,1.5771247E-1,1.6187118E-1,1.7671283E-1,-8.876375E-1,-3.5698047E-1,-4.2078924E-1,7.814384E-2,-9.080105E-2,3.4610435E-1,3.0420208E-2,4.255709E-1,-4.1545877E-1,-9.245687E-2,-9.357967E-2,3.6531487E-1,-2.1216427E-1,1.7156164E-1,1.0434183E-1,5.9927374E-1,-2.003599E-1,1.9952284E-1,2.088195E-1,5.733736E-1,-8.971321E-2,3.2406595E-1,3.0825803E-1,6.5143275E-1,-8.734125E-2,3.404968E-1,6.1243874E-1,-3.8647383E-2,3.4062934E-1,6.8541044E-1,7.627904E-1,1.068758E-1,-5.7060355E-1,2.2403808E-1,2.7277672E-1,-2.1364671E-1,-3.4082735E-1,1.3565059E-1,-2.1258656E-2,4.1180795E-1,2.0655082E-1,-4.8865843E-1,1.2283417E-1,5.3767085E-1,7.257591E-2,3.4936002E-1,1.5924144E-1,-1.3469078E-1,1.8797183E-1,7.146492E-1,7.5338686E-1,1.6976286E-1],"split_indices":[18,669,686,233,578,672,400,478,426,680,518,596,78,596,245,391,544,228,128,228,455,228,124,24,781,281,191,400,97,0,293,455,455,686,426,544,164,544,544,391,124,172,172,707,361,228,43,0,43,0,729,177,587,214,596,400,4,0,480,0,98,0,0,0,0,0,0,0,0,0,0,0,0,0,0,0,0,0,0,0,0,0,0,0,0,0,0,0,0,0,0,0,0,0,0,0,0,0,0,0,0,0,0,0,0,0,0,0,0,0,0,0,0],"split_type":[0,0,0,0,0,0,0,0,0,0,0,0,0,0,0,0,0,0,0,0,0,0,0,0,0,0,0,0,0,0,0,0,0,0,0,0,0,0,0,0,0,0,0,0,0,0,0,0,0,0,0,0,0,0,0,0,0,0,0,0,0,0,0,0,0,0,0,0,0,0,0,0,0,0,0,0,0,0,0,0,0,0,0,0,0,0,0,0,0,0,0,0,0,0,0,0,0,0,0,0,0,0,0,0,0,0,0,0,0,0,0,0,0],"sum_hessian":[6.385E3,5.253E3,1.132E3,4.171E3,1.082E3,7.58E2,3.74E2,1.925E3,2.246E3,8.09E2,2.73E2,1.01E2,6.57E2,1.36E2,2.38E2,1.62E2,1.763E3,2.007E3,2.39E2,5.9E2,2.19E2,1.08E2,1.65E2,5.4E1,4.7E1,2.24E2,4.33E2,6.4E1,7.2E1,2E0,2.36E2,8E1,8.2E1,1.425E3,3.38E2,1.84E3,1.67E2,1.56E2,8.3E1,4.5E2,1.4E2,1.01E2,1.18E2,5.7E1,5.1E1,7.6E1,8.9E1,2E0,5.2E1,3E0,4.4E1,1.45E2,7.9E1,1.22E2,3.11E2,5.7E1,7E0,4E0,6.8E1,2E0,2.34E2,5.4E1,2.6E1,3.8E1,4.4E1,1.22E3,2.05E2,1E2,2.38E2,1.52E3,3.2E2,1.02E2,6.5E1,8E1,7.6E1,2.9E1,5.4E1,3.3E2,1.2E2,6.4E1,7.6E1,3.8E1,6.3E1,4.3E1,7.5E1,2.3E1,3.4E1,4.9E1,2E0,3E1,4.6E1,8.8E1,1E0,5E1,2E0,4.1E1,3E0,8.2E1,6.3E1,2.6E1,5.3E1,1.16E2,6E0,6.8E1,2.43E2,1.7E1,4E1,1E0,6E0,3E0,6.5E1,2.32E2,2E0],"tree_param":{"num_deleted":"0","num_feature":"798","num_nodes":"113","size_leaf_vector":"1"}},{"base_weights":[-4.0182732E-2,-2.440449E0,1.078992E1,-4.9540687E0,7.5758033E0,6.179848E0,2.066618E1,-7.0454273E0,3.724989E0,4.1499557E0,1.7811672E1,-5.221564E0,8.15505E0,1.5356153E1,2.3616129E1,-8.603779E0,6.7510586E0,-7.679219E0,6.098167E0,-3.4225166E0,7.036904E0,1.2346577E1,2.1343048E1,-1.5807558E1,7.191622E0,4.5525834E-1,1.2345927E1,8.700752E0,2.1232841E1,2.3814072E1,1.8545642E-1,-1.0294408E1,5.7538757E0,-3.7545831E0,1.5906804E1,-1.6852678E1,3.6209235E0,-2.412992E0,1.1194469E1,-1.2228919E1,3.944673E0,-5.1063323E0,1.0436482E1,3.2918289E0,1.756812E1,2.1759602E1,-2.2712928E-1,3.6792952E-1,-1.6910913E1,-4.5178404E0,8.198596E0,-5.9640117E0,7.2546964E0,4.8066406E0,1.3936309E1,9.822428E0,-3.966133E0,2.0317505E-1,2.1995062E1,1.4599647E-1,2.3957052E1,-3.529009E-1,5.477298E-2,-5.259697E-2,4.7547635E-1,-3.6091033E-1,2.4107234E-1,2.7912855E-1,5.9638095E-1,-7.0566726E-1,-1.2308003E-1,3.4428462E-1,-1.5333886E-1,-3.0664277E-1,1.3637136E-1,2.6417896E-1,5.8045197E-1,-6.237452E-1,-6.392584E-2,-6.664495E-2,3.6152545E-1,-3.5769653E-1,1.9816566E-1,1.372387E-1,3.9939252E-1,-2.3928577E-1,3.111507E-1,3.00082E-1,6.388625E-1,6.6515434E-1,1.3487778E-2,-5.487525E-1,2.305244E-1,1.3057342E-1,-2.3470573E-1,-2.1788596E-1,2.693369E-1,-3.2226822E-1,7.989632E-2,1.3631977E-2,3.5442355E-1,-1.6922152E-1,2.4799947E-1,2.2859041E-1,5.2456445E-1,1.2319862E-1,3.9793524E-1,1.4868736E-1,-2.0225574E-1,6.7989373E-1,1.7421901E-1,7.230064E-1,1.5130012E-1],"categories":[],"categories_nodes":[],"categories_segments":[],"categories_sizes":[],"default_left":[1,1,1,1,1,0,1,1,0,0,0,1,0,1,1,1,1,1,0,0,0,0,1,0,0,0,0,0,0,0,0,1,1,0,0,1,1,0,1,0,1,1,0,0,1,1,0,0,1,0,0,1,0,1,0,0,0,0,1,0,1,0,0,0,0,0,0,0,0,0,0,0,0,0,0,0,0,0,0,0,0,0,0,0,0,0,0,0,0,0,0,0,0,0,0,0,0,0,0,0,0,0,0,0,0,0,0,0,0,0,0,0,0],"id":7,"left_children":[1,3,5,7,9,11,13,15,17,19,21,23,25,27,29,31,33,35,37,39,41,43,45,47,49,51,53,55,57,59,-1,61,63,65,67,69,71,73,75,77,79,81,83,85,87,89,-1,-1,91,93,95,97,99,101,103,105,107,-1,109,-1,111,-1,-1,-1,-1,-1,-1,-1,-1,-1,-1,-1,-1,-1,-1,-1,-1,-1,-1,-1,-1,-1,-1,-1,-1,-1,-1,-1,-1,-1,-1,-1,-1,-1,-1,-1,-1,-1,-1,-1,-1,-1,-1,-1,-1,-1,-1,-1,-1,-1,-1,-1,-1],"loss_changes":[1.6678508E5,1.322674E5,5.2869516E4,7.624238E4,3.688621E4,1.7946053E4,5.4331562E3,7.28133E4,2.213123E4,1.7316402E4,4.8315E3,1.561958E4,2.187268E4,5.095338E3,6.6721875E2,7.3874875E4,3.3148047E4,1.467728E4,2.9348812E4,1.4256616E4,2.3707803E4,4.953823E3,2.0797734E3,2.1896895E3,6.8555225E2,1.051865E4,5.1967734E3,9.624863E2,6.3359766E2,5.14625E2,0E0,4.8466188E4,2.4355344E4,1.5806076E4,4.6411562E3,6.536381E3,4.4486484E3,1.3847956E4,8.067836E3,8.602248E3,6.02486E3,1.0138394E4,7.493379E3,3.273767E3,1.6762832E3,1.3691562E3,0E0,0E0,2.2461836E3,1.8066333E2,6.797117E2,5.140278E3,3.6222666E3,2.8661702E3,7.982375E3,1.1259839E3,1.8201068E2,0E0,5.929551E2,0E0,5.039375E2,0E0,0E0,0E0,0E0,0E0,0E0,0E0,0E0,0E0,0E0,0E0,0E0,0E0,0E0,0E0,0E0,0E0,0E0,0E0,0E0,0E0,0E0,0E0,0E0,0E0,0E0,0E0,0E0,0E0,0E0,0E0,0E0,0E0,0E0,0E0,0E0,0E0,0E0,0E0,0E0,0E0,0E0,0E0,0E0,0E0,0E0,0E0,0E0,0E0,0E0,0E0,0E0],"parents":[2147483647,0,0,1,1,2,2,3,3,4,4,5,5,6,6,7,7,8,8,9,9,10,10,11,11,12,12,13,13,14,14,15,15,16,16,17,17,18,18,19,19,20,20,21,21,22,22,23,23,24,24,25,25,26,26,27,27,28,28,29,29,31,31,32,32,33,33,34,34,35,35,36,36,37,37,38,38,39,39,40,40,41,41,42,42,43,43,44,44,45,45,48,48,49,49,50,50,51,51,52,52,53,53,54,54,55,55,56,56,58,58,60,60],"right_children":[2,4,6,8,10,12,14,16,18,20,22,24,26,28,30,32,34,36,38,40,42,44,46,48,50,52,54,56,58,60,-1,62,64,66,68,70,72,74,76,78,80,82,84,86,88,90,-1,-1,92,94,96,98,100,102,104,106,108,-1,110,-1,112,-1,-1,-1,-1,-1,-1,-1,-1,-1,-1,-1,-1,-1,-1,-1,-1,-1,-1,-1,-1,-1,-1,-1,-1,-1,-1,-1,-1,-1,-1,-1,-1,-1,-1,-1,-1,-1,-1,-1,-1,-1,-1,-1,-1,-1,-1,-1,-1,-1,-1,-1,-1],"split_conditions":[1.2727803E-1,1.2362689E-1,1.6907197E-1,1.2018887E-1,1.6041455E-1,1.6920754E-1,1.6163906E-1,1.5496804E-1,1.566168E-1,1.5490913E-1,1.3852781E-1,1.7969505E-1,1.6943705E-1,1.690941E-1,1.8735288E-1,1.6936572E-1,1.370976E-1,1.7117642E-1,1.7273705E-1,1.4377137E-1,1.5661661E-1,1.4108011E-1,1.702342E-1,1.9127242E-1,1.7404342E-1,1.727863E-1,1.4705372E-1,4.873261E-2,1.9021678E-1,1.627316E-1,1.8545642E-1,1.7273705E-1,1.7869672E-1,2.4522609E-1,1.20907374E-1,1.9542105E-1,7.800954E-2,1.765371E-1,1.9100785E-1,1.517518E-1,1.2773426E-1,1.7943746E-1,1.5575552E-1,1.386956E-1,1.131977E-1,1.703687E-1,-2.2712928E-1,3.6792952E-1,1.7671804E-1,1.7505424E-1,1.81024E-1,1.8483645E-1,1.5288325E-1,1.8381755E-1,1.8973877E-1,1.6449995E-1,2.3142073E-1,2.0317505E-1,1.6977866E-1,1.4599647E-1,1.7490439E-1,-3.529009E-1,5.477298E-2,-5.259697E-2,4.7547635E-1,-3.6091033E-1,2.4107234E-1,2.7912855E-1,5.9638095E-1,-7.0566726E-1,-1.2308003E-1,3.4428462E-1,-1.5333886E-1,-3.0664277E-1,1.3637136E-1,2.6417896E-1,5.8045197E-1,-6.237452E-1,-6.392584E-2,-6.664495E-2,3.6152545E-1,-3.5769653E-1,1.9816566E-1,1.372387E-1,3.9939252E-1,-2.3928577E-1,3.111507E-1,3.00082E-1,6.388625E-1,6.6515434E-1,1.3487778E-2,-5.487525E-1,2.305244E-1,1.3057342E-1,-2.3470573E-1,-2.1788596E-1,2.693369E-1,-3.2226822E-1,7.989632E-2,1.3631977E-2,3.5442355E-1,-1.6922152E-1,2.4799947E-1,2.2859041E-1,5.2456445E-1,1.2319862E-1,3.9793524E-1,1.4868736E-1,-2.0225574E-1,6.7989373E-1,1.7421901E-1,7.230064E-1,1.5130012E-1],"split_indices":[18,669,686,544,228,672,400,686,478,680,707,596,30,596,20,228,672,391,426,391,578,578,696,24,470,668,596,532,97,780,0,426,707,530,596,455,669,349,128,455,544,707,455,124,124,708,0,0,179,91,100,345,345,400,78,18,150,0,220,0,216,0,0,0,0,0,0,0,0,0,0,0,0,0,0,0,0,0,0,0,0,0,0,0,0,0,0,0,0,0,0,0,0,0,0,0,0,0,0,0,0,0,0,0,0,0,0,0,0,0,0,0,0],"split_type":[0,0,0,0,0,0,0,0,0,0,0,0,0,0,0,0,0,0,0,0,0,0,0,0,0,0,0,0,0,0,0,0,0,0,0,0,0,0,0,0,0,0,0,0,0,0,0,0,0,0,0,0,0,0,0,0,0,0,0,0,0,0,0,0,0,0,0,0,0,0,0,0,0,0,0,0,0,0,0,0,0,0,0,0,0,0,0,0,0,0,0,0,0,0,0,0,0,0,0,0,0,0,0,0,0,0,0,0,0,0,0,0,0],"sum_hessian":[6.414E3,5.251E3,1.163E3,4.198E3,1.053E3,7.94E2,3.69E2,3.383E3,8.15E2,7.9E2,2.63E2,1.17E2,6.77E2,1.34E2,2.35E2,3.04E3,3.43E2,1.4E2,6.75E2,2.18E2,5.72E2,1.05E2,1.58E2,6.3E1,5.4E1,2.39E2,4.38E2,6.4E1,7E1,2.32E2,3E0,2.72E3,3.2E2,1.6E2,1.83E2,7.7E1,6.3E1,2.53E2,4.22E2,9.9E1,1.19E2,1.25E2,4.47E2,3.9E1,6.6E1,1.56E2,2E0,2E0,6.1E1,4E0,5E1,1.23E2,1.16E2,7.7E1,3.61E2,5.9E1,5E0,4E0,6.6E1,2E0,2.3E2,2.426E3,2.94E2,1.84E2,1.36E2,9.4E1,6.6E1,7E1,1.13E2,5E1,2.7E1,3.3E1,3E1,1.19E2,1.34E2,3.28E2,9.4E1,5.3E1,4.6E1,6.8E1,5.1E1,7.9E1,4.6E1,1.48E2,2.99E2,1.5E1,2.4E1,2.3E1,4.3E1,1.53E2,3E0,5.8E1,3E0,1E0,3E0,2E0,4.8E1,7.9E1,4.4E1,4.7E1,6.9E1,1.9E1,5.8E1,1.31E2,2.3E2,2.3E1,3.6E1,1E0,4E0,6.3E1,3E0,2.28E2,2E0],"tree_param":{"num_deleted":"0","num_feature":"798","num_nodes":"113","size_leaf_vector":"1"}},{"base_weights":[8.315582E-2,-1.5615163E0,1.3203664E1,-3.843119E0,7.8486814E0,4.614578E0,1.9107906E1,1.130179E-1,-7.700741E0,4.6461544E0,1.7115286E1,-4.47467E0,1.5582656E1,1.412269E1,2.262313E1,-1.3530306E0,9.356773E0,-9.059778E0,4.6165085E0,1.6192355E0,1.2168494E1,1.1653284E1,2.093759E1,-1.4769193E1,4.019429E0,8.436076E0,2.1340994E1,6.784852E0,2.004353E1,2.2866306E1,2.1337032E0,-3.6036654E0,6.765111E0,1.4426583E0,1.4884446E1,-1.0405693E1,4.582613E0,-9.242552E-2,1.4096731E1,-1.9603014E0,1.3661946E1,5.567026E0,1.6592255E1,3.8211899E0,1.7004713E1,2.1220024E1,-1.5754598E0,2.3938453E-1,-1.5858129E1,1.7007242E1,2.526716E0,1.9294971E1,7.1219783E0,2.2105028E1,2.635172E0,7.71575E0,-3.9191625E-1,2.054074E1,-4.227878E-1,1.2666245E-1,2.3002943E1,-1.4611965E-1,1.8276122E-1,-1.6180272E-1,2.7541354E-1,-8.40332E-2,2.695515E-1,-1.7025149E-1,2.7677724E-1,2.6373792E-1,5.9233034E-1,-5.330867E-1,-2.5195384E-1,-1.2536801E-2,3.7603042E-1,-1.9059215E-1,1.9743966E-1,-2.2823799E-1,4.7128996E-1,-1.5733726E-1,2.4339958E-1,1.7574672E-1,5.396943E-1,-5.631485E-2,3.3857426E-1,3.544062E-1,6.322245E-1,-1.6798072E-1,2.5257224E-1,2.8137377E-1,6.4412665E-1,6.4789534E-1,1.4559269E-1,-1.6591266E-1,9.501697E-2,2.1514633E-1,-4.9922806E-1,2.1069951E-1,6.248596E-1,4.644555E-2,6.292918E-1,1.15891226E-1,6.4826244E-1,2.6578587E-1,3.7996293E-4,6.8598115E-1,2.2916023E-1,-1.348787E-1,1.95326E-1,-2.2670259E-1,2.5282222E-1,1.3649093E-1,6.3008064E-1,6.942032E-1,1.3086243E-1],"categories":[],"categories_nodes":[],"categories_segments":[],"categories_sizes":[],"default_left":[1,1,1,0,1,1,1,1,1,1,0,1,1,1,1,1,0,1,1,1,0,0,1,0,0,0,1,1,1,0,0,1,0,1,0,0,1,0,0,1,0,0,0,0,0,1,0,0,0,0,1,0,1,1,0,0,0,0,0,0,1,0,0,0,0,0,0,0,0,0,0,0,0,0,0,0,0,0,0,0,0,0,0,0,0,0,0,0,0,0,0,0,0,0,0,0,0,0,0,0,0,0,0,0,0,0,0,0,0,0,0,0,0,0,0],"id":8,"left_children":[1,3,5,7,9,11,13,15,17,19,21,23,25,27,29,31,33,35,37,39,41,43,45,47,49,51,53,55,57,59,61,63,65,67,69,71,73,75,77,79,81,83,85,87,89,91,93,-1,95,97,99,101,103,105,107,109,-1,111,-1,-1,113,-1,-1,-1,-1,-1,-1,-1,-1,-1,-1,-1,-1,-1,-1,-1,-1,-1,-1,-1,-1,-1,-1,-1,-1,-1,-1,-1,-1,-1,-1,-1,-1,-1,-1,-1,-1,-1,-1,-1,-1,-1,-1,-1,-1,-1,-1,-1,-1,-1,-1,-1,-1,-1,-1],"loss_changes":[1.3870844E5,1.2266871E5,3.622164E4,7.017222E4,3.300983E4,2.927936E4,7.1107344E3,3.0788783E4,3.9011625E4,1.8878992E4,5.726961E3,1.4137637E4,5.29324E3,7.5974297E3,1.1818984E3,3.5853754E4,1.358373E4,3.8551766E4,1.03581875E4,2.5589428E4,6.8580234E3,4.9645674E3,1.0952812E3,1.9348857E3,1.6824777E3,7.330303E2,9.850586E2,1.5974463E3,1.952832E3,5.2446094E2,1.4057469E2,3.519393E4,9.071881E3,7.198816E3,5.245465E3,2.806764E4,7.5203877E3,6.5597993E3,2.8151494E3,1.5195266E4,4.487801E3,4.1506387E3,2.7923516E3,2.212871E3,2.2166836E3,9.119219E2,7.378764E1,0E0,1.3812852E3,1.9708765E2,1.4298649E3,1.3076074E2,6.916443E2,5.9596484E2,1.3982489E2,9.114487E2,0E0,6.209922E2,0E0,0E0,5.178281E2,0E0,0E0,0E0,0E0,0E0,0E0,0E0,0E0,0E0,0E0,0E0,0E0,0E0,0E0,0E0,0E0,0E0,0E0,0E0,0E0,0E0,0E0,0E0,0E0,0E0,0E0,0E0,0E0,0E0,0E0,0E0,0E0,0E0,0E0,0E0,0E0,0E0,0E0,0E0,0E0,0E0,0E0,0E0,0E0,0E0,0E0,0E0,0E0,0E0,0E0,0E0,0E0,0E0,0E0],"parents":[2147483647,0,0,1,1,2,2,3,3,4,4,5,5,6,6,7,7,8,8,9,9,10,10,11,11,12,12,13,13,14,14,15,15,16,16,17,17,18,18,19,19,20,20,21,21,22,22,23,23,24,24,25,25,26,26,27,27,28,28,29,29,30,30,31,31,32,32,33,33,34,34,35,35,36,36,37,37,38,38,39,39,40,40,41,41,42,42,43,43,44,44,45,45,46,46,48,48,49,49,50,50,51,51,52,52,53,53,54,54,55,55,57,57,60,60],"right_children":[2,4,6,8,10,12,14,16,18,20,22,24,26,28,30,32,34,36,38,40,42,44,46,48,50,52,54,56,58,60,62,64,66,68,70,72,74,76,78,80,82,84,86,88,90,92,94,-1,96,98,100,102,104,106,108,110,-1,112,-1,-1,114,-1,-1,-1,-1,-1,-1,-1,-1,-1,-1,-1,-1,-1,-1,-1,-1,-1,-1,-1,-1,-1,-1,-1,-1,-1,-1,-1,-1,-1,-1,-1,-1,-1,-1,-1,-1,-1,-1,-1,-1,-1,-1,-1,-1,-1,-1,-1,-1,-1,-1,-1,-1,-1,-1],"split_conditions":[1.5496804E-1,1.2362689E-1,1.4709702E-1,4.0525746E-2,1.6041455E-1,1.690941E-1,1.6764985E-1,1.1249756E-1,2.0820674E-1,1.4756103E-1,1.4108011E-1,1.7547062E-1,1.13245204E-1,1.4705372E-1,1.8887815E-1,1.1018746E-1,1.11415766E-1,1.9603166E-1,2.2519349E-1,1.5682988E-1,1.5310122E-1,1.386956E-1,1.8365657E-1,2.2130696E-1,1.096144E-1,1.8503165E-1,1.7436151E-1,1.6208516E-1,2.853649E-1,1.6588959E-1,3.3386233E-1,1.0826206E-1,1.0409139E-1,1.5869772E-1,1.11640066E-1,1.306363E-1,1.9456235E-1,2.2538571E-1,2.2184555E-1,1.2018887E-1,1.3232389E-1,1.7597762E-1,1.4630504E-1,1.3852781E-1,1.2727258E-1,1.7029496E-1,1.0626433E-1,2.3938453E-1,1.9532044E-1,4.0043164E-2,1.8466999E-1,1.8534604E-1,1.06520034E-1,1.6682766E-1,2.0884459E-1,2.0425667E-1,-3.9191625E-1,1.8510494E-1,-4.227878E-1,1.2666245E-1,1.6660458E-1,-1.4611965E-1,1.8276122E-1,-1.6180272E-1,2.7541354E-1,-8.40332E-2,2.695515E-1,-1.7025149E-1,2.7677724E-1,2.6373792E-1,5.9233034E-1,-5.330867E-1,-2.5195384E-1,-1.2536801E-2,3.7603042E-1,-1.9059215E-1,1.9743966E-1,-2.2823799E-1,4.7128996E-1,-1.5733726E-1,2.4339958E-1,1.7574672E-1,5.396943E-1,-5.631485E-2,3.3857426E-1,3.544062E-1,6.322245E-1,-1.6798072E-1,2.5257224E-1,2.8137377E-1,6.4412665E-1,6.4789534E-1,1.4559269E-1,-1.6591266E-1,9.501697E-2,2.1514633E-1,-4.9922806E-1,2.1069951E-1,6.248596E-1,4.644555E-2,6.292918E-1,1.15891226E-1,6.4826244E-1,2.6578587E-1,3.7996293E-4,6.8598115E-1,2.2916023E-1,-1.348787E-1,1.95326E-1,-2.2670259E-1,2.5282222E-1,1.3649093E-1,6.3008064E-1,6.942032E-1,1.3086243E-1],"split_indices":[754,669,400,532,228,596,610,30,349,680,578,610,610,596,168,544,345,191,426,707,172,124,361,224,530,47,533,745,42,465,105,124,172,668,281,544,345,718,357,544,578,455,455,707,707,565,27,0,298,233,564,32,610,185,34,140,0,656,0,0,679,0,0,0,0,0,0,0,0,0,0,0,0,0,0,0,0,0,0,0,0,0,0,0,0,0,0,0,0,0,0,0,0,0,0,0,0,0,0,0,0,0,0,0,0,0,0,0,0,0,0,0,0,0,0],"split_type":[0,0,0,0,0,0,0,0,0,0,0,0,0,0,0,0,0,0,0,0,0,0,0,0,0,0,0,0,0,0,0,0,0,0,0,0,0,0,0,0,0,0,0,0,0,0,0,0,0,0,0,0,0,0,0,0,0,0,0,0,0,0,0,0,0,0,0,0,0,0,0,0,0,0,0,0,0,0,0,0,0,0,0,0,0,0,0,0,0,0,0,0,0,0,0,0,0,0,0,0,0,0,0,0,0,0,0,0,0,0,0,0,0,0,0],"sum_hessian":[6.426E3,5.711E3,7.15E2,4.597E3,1.114E3,2.92E2,4.23E2,2.27E3,2.327E3,8.29E2,2.85E2,1.6E2,1.32E2,1.77E2,2.46E2,1.96E3,3.1E2,2.096E3,2.31E2,5.92E2,2.37E2,1.19E2,1.66E2,7.2E1,8.8E1,6E1,7.2E1,8E1,9.7E1,2.43E2,3E0,1.535E3,4.25E2,1.28E2,1.82E2,1.908E3,1.88E2,1.55E2,7.6E1,4.57E2,1.35E2,9.6E1,1.41E2,4.9E1,7E1,1.64E2,2E0,3E0,6.9E1,8E0,8E1,5E0,5.5E1,6.9E1,3E0,7.7E1,3E0,9.6E1,1E0,2E0,2.41E2,1E0,2E0,1.347E3,1.88E2,8E1,3.45E2,6.7E1,6.1E1,8.2E1,1E2,4.07E2,1.501E3,1.16E2,7.2E1,8E1,7.5E1,5E0,7.1E1,3.45E2,1.12E2,4.9E1,8.6E1,4.2E1,5.4E1,7E1,7.1E1,1.6E1,3.3E1,2.7E1,4.3E1,1.6E2,4E0,1E0,1E0,2E0,6.7E1,3E0,5E0,7.7E1,3E0,1E0,4E0,4.4E1,1.1E1,6.5E1,4E0,1E0,2E0,3E0,7.4E1,3E0,9.3E1,2.39E2,2E0],"tree_param":{"num_deleted":"0","num_feature":"798","num_nodes":"115","size_leaf_vector":"1"}},{"base_weights":[-2.5362015E-2,-2.2787204E0,1.01643505E1,-4.8024035E0,7.3032007E0,5.660201E0,2.0105211E1,-6.7785664E0,3.3396552E0,4.167254E0,1.6616064E1,-4.4619164E0,7.5440683E0,1.485423E1,2.2723478E1,-8.267372E0,6.6409864E0,9.938167E-2,1.2553232E1,1.4110118E0,1.1527386E1,1.08330145E1,2.0523232E1,-1.3543688E1,6.419189E0,-4.759657E-1,1.1699662E1,6.140527E0,2.1364027E1,2.2915207E1,1.7191875E-1,-9.946088E0,6.0544286E0,-2.885214E0,1.4144926E1,-2.2313473E0,1.0075665E1,7.15914E-1,1.6420053E1,-1.8534555E0,1.3037693E1,6.4574122E0,1.6232601E1,4.315711E0,1.6938807E1,2.0873741E1,1.3720398E0,-2.5012745E1,-5.101094E0,1.8540788E-1,1.3569627E1,-6.2522597E0,7.8590684E0,2.5688343E0,1.3460014E1,-1.6611663E0,1.4003745E1,1.4335957E1,7.4849796E-1,2.3214052E1,1.27983055E1,-3.468627E-1,1.3228308E-1,-4.801942E-2,4.459815E-1,-3.9698926E-1,2.3781963E-1,1.6058214E-1,5.956582E-1,-1.5632914E-1,2.2434933E-1,7.382175E-2,5.06643E-1,-1.8316537E-1,2.7638602E-1,3.200199E-1,6.085356E-1,-1.5939236E-1,2.3920368E-1,1.9388565E-1,5.3132284E-1,2.3233458E-1,-2.611172E-1,5.091542E-1,-2.5570107E-1,-2.905934E-1,2.2710697E-1,-6.268867E-2,5.2967125E-1,6.350038E-1,-4.5547027E-2,1.48414E-1,-1.402986E-1,-1.3888264E-1,-7.672615E-1,-2.9696506E-1,-2.7478676E-2,-7.754485E-2,1.7127076E-1,4.314019E-1,1.5943782E-1,-3.4951487E-1,9.237272E-2,2.3403035E-2,4.1853347E-1,-1.613967E-1,3.2663393E-1,1.8858035E-1,5.2846664E-1,1.4697325E-1,-2.06627E-1,2.0716919E-1,4.4813856E-1,4.6765652E-1,2.2687653E-1,7.0040375E-1,1.6429023E-1,1.7278026E-1,4.6073693E-1],"categories":[],"categories_nodes":[],"categories_segments":[],"categories_sizes":[],"default_left":[1,1,1,1,1,0,1,1,1,1,0,1,0,1,1,1,1,1,0,1,0,1,1,0,1,1,0,1,0,1,0,1,1,1,0,1,0,1,0,1,0,0,1,0,0,1,0,0,0,0,1,1,0,1,0,1,0,0,0,1,0,0,0,0,0,0,0,0,0,0,0,0,0,0,0,0,0,0,0,0,0,0,0,0,0,0,0,0,0,0,0,0,0,0,0,0,0,0,0,0,0,0,0,0,0,0,0,0,0,0,0,0,0,0,0,0,0,0,0],"id":9,"left_children":[1,3,5,7,9,11,13,15,17,19,21,23,25,27,29,31,33,35,37,39,41,43,45,47,49,51,53,55,57,59,-1,61,63,65,67,69,71,73,75,77,79,81,83,85,87,89,91,93,95,97,99,101,103,105,107,109,111,113,-1,115,117,-1,-1,-1,-1,-1,-1,-1,-1,-1,-1,-1,-1,-1,-1,-1,-1,-1,-1,-1,-1,-1,-1,-1,-1,-1,-1,-1,-1,-1,-1,-1,-1,-1,-1,-1,-1,-1,-1,-1,-1,-1,-1,-1,-1,-1,-1,-1,-1,-1,-1,-1,-1,-1,-1,-1,-1,-1,-1],"loss_changes":[1.4695108E5,1.2677154E5,5.178057E4,6.678019E4,3.1851434E4,1.5269572E4,4.6256562E3,6.676516E4,2.4210762E4,1.659822E4,5.9913906E3,1.2538223E4,2.2468645E4,6.845918E3,6.4735156E2,7.233116E4,2.3916477E4,1.3996941E4,9.646301E3,2.2683252E4,5.214914E3,4.42354E3,1.0655234E3,6.55358E3,2.582791E3,1.1170772E4,7.102043E3,3.3359688E3,1.406459E3,4.1642188E2,0E0,6.2478312E4,2.1339145E4,1.666396E4,9.282324E3,1.4157362E4,5.872339E3,3.1282007E3,3.318379E3,1.5919155E4,3.9104688E3,2.1944043E3,2.2491348E3,2.6252676E3,8.280996E2,1.0820547E3,1.09633965E2,2.1418555E2,8.1418066E2,5.0441208E2,1.0421094E2,6.9369526E3,4.0860303E3,4.885711E3,1.0979273E4,9.937683E2,7.588379E1,1.02703125E2,0E0,4.0896094E2,7.370044E1,0E0,0E0,0E0,0E0,0E0,0E0,0E0,0E0,0E0,0E0,0E0,0E0,0E0,0E0,0E0,0E0,0E0,0E0,0E0,0E0,0E0,0E0,0E0,0E0,0E0,0E0,0E0,0E0,0E0,0E0,0E0,0E0,0E0,0E0,0E0,0E0,0E0,0E0,0E0,0E0,0E0,0E0,0E0,0E0,0E0,0E0,0E0,0E0,0E0,0E0,0E0,0E0,0E0,0E0,0E0,0E0,0E0,0E0],"parents":[2147483647,0,0,1,1,2,2,3,3,4,4,5,5,6,6,7,7,8,8,9,9,10,10,11,11,12,12,13,13,14,14,15,15,16,16,17,17,18,18,19,19,20,20,21,21,22,22,23,23,24,24,25,25,26,26,27,27,28,28,29,29,31,31,32,32,33,33,34,34,35,35,36,36,37,37,38,38,39,39,40,40,41,41,42,42,43,43,44,44,45,45,46,46,47,47,48,48,49,49,50,50,51,51,52,52,53,53,54,54,55,55,56,56,57,57,59,59,60,60],"right_children":[2,4,6,8,10,12,14,16,18,20,22,24,26,28,30,32,34,36,38,40,42,44,46,48,50,52,54,56,58,60,-1,62,64,66,68,70,72,74,76,78,80,82,84,86,88,90,92,94,96,98,100,102,104,106,108,110,112,114,-1,116,118,-1,-1,-1,-1,-1,-1,-1,-1,-1,-1,-1,-1,-1,-1,-1,-1,-1,-1,-1,-1,-1,-1,-1,-1,-1,-1,-1,-1,-1,-1,-1,-1,-1,-1,-1,-1,-1,-1,-1,-1,-1,-1,-1,-1,-1,-1,-1,-1,-1,-1,-1,-1,-1,-1,-1,-1,-1,-1],"split_conditions":[1.2727803E-1,1.2362689E-1,1.6764985E-1,1.2773426E-1,1.4579047E-1,1.6163906E-1,1.5612578E-1,1.550923E-1,1.6680686E-1,1.6415687E-1,1.4375809E-1,1.7760316E-1,1.6943705E-1,1.7122251E-1,1.7124629E-1,1.6936572E-1,1.5496804E-1,1.7567693E-1,1.13947466E-1,1.6041455E-1,1.5575552E-1,1.8021251E-1,1.7405105E-1,1.6907197E-1,1.7775027E-1,1.7218505E-1,1.6398522E-1,1.819621E-1,1.4060932E-1,1.5923047E-1,1.7191875E-1,1.7590293E-1,1.7088187E-1,1.5517168E-1,1.21401586E-1,1.7977922E-1,1.3119903E-1,1.9573545E-1,1.3713385E-1,1.2773426E-1,1.4108011E-1,4.8248474E-2,1.7760102E-1,1.0305527E-1,1.6718552E-1,9.616546E-2,1.0214365E-1,1.4898424E-1,1.1770766E-1,1.1143957E-1,1.6094394E-1,1.8727995E-1,1.3864872E-1,1.7880504E-1,1.8921459E-1,1.0438898E-1,1.744243E-1,1.15073934E-1,7.4849796E-1,1.8549916E-1,1.0257953E-1,-3.468627E-1,1.3228308E-1,-4.801942E-2,4.459815E-1,-3.9698926E-1,2.3781963E-1,1.6058214E-1,5.956582E-1,-1.5632914E-1,2.2434933E-1,7.382175E-2,5.06643E-1,-1.8316537E-1,2.7638602E-1,3.200199E-1,6.085356E-1,-1.5939236E-1,2.3920368E-1,1.9388565E-1,5.3132284E-1,2.3233458E-1,-2.611172E-1,5.091542E-1,-2.5570107E-1,-2.905934E-1,2.2710697E-1,-6.268867E-2,5.2967125E-1,6.350038E-1,-4.5547027E-2,1.48414E-1,-1.402986E-1,-1.3888264E-1,-7.672615E-1,-2.9696506E-1,-2.7478676E-2,-7.754485E-2,1.7127076E-1,4.314019E-1,1.5943782E-1,-3.4951487E-1,9.237272E-2,2.3403035E-2,4.1853347E-1,-1.613967E-1,3.2663393E-1,1.8858035E-1,5.2846664E-1,1.4697325E-1,-2.06627E-1,2.0716919E-1,4.4813856E-1,4.6765652E-1,2.2687653E-1,7.0040375E-1,1.6429023E-1,1.7278026E-1,4.6073693E-1],"split_indices":[18,669,610,544,124,400,400,672,718,680,68,596,30,686,479,228,686,680,426,228,455,228,435,686,686,345,686,596,596,262,0,191,124,596,610,349,391,545,545,544,578,532,135,578,422,587,27,9,610,610,604,281,281,596,281,400,225,401,0,661,686,0,0,0,0,0,0,0,0,0,0,0,0,0,0,0,0,0,0,0,0,0,0,0,0,0,0,0,0,0,0,0,0,0,0,0,0,0,0,0,0,0,0,0,0,0,0,0,0,0,0,0,0,0,0,0,0,0,0],"split_type":[0,0,0,0,0,0,0,0,0,0,0,0,0,0,0,0,0,0,0,0,0,0,0,0,0,0,0,0,0,0,0,0,0,0,0,0,0,0,0,0,0,0,0,0,0,0,0,0,0,0,0,0,0,0,0,0,0,0,0,0,0,0,0,0,0,0,0,0,0,0,0,0,0,0,0,0,0,0,0,0,0,0,0,0,0,0,0,0,0,0,0,0,0,0,0,0,0,0,0,0,0,0,0,0,0,0,0,0,0,0,0,0,0,0,0,0,0,0,0],"sum_hessian":[6.398E3,5.24E3,1.158E3,4.148E3,1.092E3,7.98E2,3.6E2,3.338E3,8.1E2,8.18E2,2.74E2,1.25E2,6.73E2,1.22E2,2.38E2,3.005E3,3.33E2,6E2,2.1E2,5.96E2,2.22E2,1.12E2,1.62E2,6.8E1,5.7E1,2.3E2,4.43E2,5.3E1,6.9E1,2.35E2,3E0,2.69E3,3.15E2,1.47E2,1.86E2,4.87E2,1.13E2,5.2E1,1.58E2,4.66E2,1.3E2,1.08E2,1.14E2,5.5E1,5.7E1,1.59E2,3E0,2.8E1,4E1,3.1E1,2.6E1,1.36E2,9.4E1,7.2E1,3.71E2,2.7E1,2.6E1,2.5E1,4.4E1,2.27E2,8E0,2.418E3,2.72E2,1.69E2,1.46E2,7.5E1,7.2E1,7.4E1,1.12E2,3.73E2,1.14E2,5.4E1,5.9E1,2.9E1,2.3E1,6.5E1,9.3E1,3.45E2,1.21E2,5.5E1,7.5E1,1E2,8E0,1.11E2,3E0,1E1,4.5E1,2E0,5.5E1,1.57E2,2E0,2E0,1E0,1E0,2.7E1,1.8E1,2.2E1,2.1E1,1E1,2.3E1,3E0,8.6E1,5E1,4.4E1,5E1,3.7E1,3.5E1,1.37E2,2.34E2,1.2E1,1.5E1,4E0,2.2E1,2E1,5E0,2.25E2,2E0,3E0,5E0],"tree_param":{"num_deleted":"0","num_feature":"798","num_nodes":"119","size_leaf_vector":"1"}},{"base_weights":[3.534821E-1,-1.9198512E0,1.0393414E1,-3.6596246E0,1.1134449E1,5.901983E0,1.92701E1,1.7063077E-1,-7.7927585E0,5.427849E0,1.762293E1,-5.3380475E0,7.990938E0,1.5223048E1,2.1943539E1,-8.699826E-1,1.2870947E1,-9.213413E0,5.649503E0,-1.1831939E0,1.1138995E1,1.1895458E1,2.2282858E1,-1.641788E1,5.132702E0,-3.3081898E-1,1.2604013E1,7.0685763E0,1.8552177E1,2.222341E1,2.895879E-1,-1.2519514E1,5.1180404E-1,6.199708E0,1.746974E1,-1.1019763E1,1.2228146E-2,-4.36709E-1,1.337649E1,-1.0143221E1,5.9987473E0,4.6017156E0,1.6348337E1,4.835666E0,1.6106497E1,2.2719938E1,-2.2744612E-1,-7.6317304E-1,-2.7706015E0,-1.7783344E0,1.2099311E1,-7.5107765E0,6.326465E0,6.85326E0,1.5151779E1,-7.233429E-1,1.3155748E1,1.2046943E1,2.2089228E1,2.2399475E1,2.015982E-1,-5.3042567E-1,-1.1442334E-1,-3.6799815E-1,4.8846547E-2,-7.0126235E-2,3.400639E-1,3.1634745E-1,6.842219E-1,-3.5924354E-1,1.21382415E-1,-7.565728E-2,3.02154E-1,-2.7130443E-1,2.3685098E-1,4.2804962E-1,-5.44037E-1,-5.618878E-1,3.0524181E-3,-5.0548926E-2,3.4233135E-1,-8.3401166E-2,2.9873273E-1,2.9971835E-1,6.637435E-1,-5.112044E-1,1.9783653E-1,2.8711542E-1,6.053873E-1,6.94343E-1,3.0081939E-2,-2.6471028E-1,2.2072855E-3,-8.970347E-2,2.3263824E-1,5.961071E-1,3.1830722E-1,-4.149833E-1,4.410471E-2,3.0165842E-2,3.3176726E-1,-9.680537E-2,3.5789943E-1,1.3099E-1,5.321471E-1,-9.8534204E-2,2.5924185E-1,4.2659247E-1,1.6890578E-1,1.9771217E-1,4.450279E-1,1.4350852E-1,6.754601E-1,6.758376E-1,1.6027336E-1],"categories":[],"categories_nodes":[],"categories_segments":[],"categories_sizes":[],"default_left":[1,1,1,0,1,0,1,1,1,1,1,1,0,0,0,0,0,1,0,0,0,0,1,1,1,0,0,0,0,1,0,1,0,0,0,1,1,0,1,1,0,0,1,0,0,1,0,0,0,1,0,1,0,0,0,0,0,1,0,1,0,0,0,0,0,0,0,0,0,0,0,0,0,0,0,0,0,0,0,0,0,0,0,0,0,0,0,0,0,0,0,0,0,0,0,0,0,0,0,0,0,0,0,0,0,0,0,0,0,0,0,0,0,0,0],"id":10,"left_children":[1,3,5,7,9,11,13,15,17,19,21,23,25,27,29,31,33,35,37,39,41,43,45,47,49,51,53,55,57,59,-1,61,63,65,67,69,71,73,75,77,79,81,83,85,87,89,-1,-1,91,93,95,97,99,101,103,105,107,109,111,113,-1,-1,-1,-1,-1,-1,-1,-1,-1,-1,-1,-1,-1,-1,-1,-1,-1,-1,-1,-1,-1,-1,-1,-1,-1,-1,-1,-1,-1,-1,-1,-1,-1,-1,-1,-1,-1,-1,-1,-1,-1,-1,-1,-1,-1,-1,-1,-1,-1,-1,-1,-1,-1,-1,-1],"loss_changes":[1.4513566E5,1.1780001E5,4.6692508E4,7.24438E4,2.2490922E4,1.838048E4,3.9288594E3,3.1412697E4,4.2084156E4,1.2321844E4,7.3414688E3,1.4354007E4,2.5302445E4,4.212426E3,5.938281E2,3.5371883E4,5.4140312E3,3.317961E4,9.928768E3,9.842105E3,5.884379E3,3.7868926E3,2.2085469E3,7.316427E3,3.102892E3,1.1328085E4,6.108422E3,2.2861921E3,2.3339492E3,4.745625E2,0E0,1.0401617E4,2.805266E4,3.3148892E3,3.6775078E3,2.4004812E4,8.3613955E3,8.604816E3,2.872287E3,5.9836685E3,3.5540823E3,3.151105E3,3.341291E3,2.036224E3,1.9632168E3,1.3976094E3,0E0,0E0,4.3104968E2,4.0439795E2,1.594585E2,6.4929663E3,3.086147E3,6.7934507E3,8.0961094E3,5.560374E2,1.3613428E2,5.4101904E2,4.2322656E2,3.7478125E2,0E0,0E0,0E0,0E0,0E0,0E0,0E0,0E0,0E0,0E0,0E0,0E0,0E0,0E0,0E0,0E0,0E0,0E0,0E0,0E0,0E0,0E0,0E0,0E0,0E0,0E0,0E0,0E0,0E0,0E0,0E0,0E0,0E0,0E0,0E0,0E0,0E0,0E0,0E0,0E0,0E0,0E0,0E0,0E0,0E0,0E0,0E0,0E0,0E0,0E0,0E0,0E0,0E0,0E0,0E0],"parents":[2147483647,0,0,1,1,2,2,3,3,4,4,5,5,6,6,7,7,8,8,9,9,10,10,11,11,12,12,13,13,14,14,15,15,16,16,17,17,18,18,19,19,20,20,21,21,22,22,23,23,24,24,25,25,26,26,27,27,28,28,29,29,31,31,32,32,33,33,34,34,35,35,36,36,37,37,38,38,39,39,40,40,41,41,42,42,43,43,44,44,45,45,48,48,49,49,50,50,51,51,52,52,53,53,54,54,55,55,56,56,57,57,58,58,59,59],"right_children":[2,4,6,8,10,12,14,16,18,20,22,24,26,28,30,32,34,36,38,40,42,44,46,48,50,52,54,56,58,60,-1,62,64,66,68,70,72,74,76,78,80,82,84,86,88,90,-1,-1,92,94,96,98,100,102,104,106,108,110,112,114,-1,-1,-1,-1,-1,-1,-1,-1,-1,-1,-1,-1,-1,-1,-1,-1,-1,-1,-1,-1,-1,-1,-1,-1,-1,-1,-1,-1,-1,-1,-1,-1,-1,-1,-1,-1,-1,-1,-1,-1,-1,-1,-1,-1,-1,-1,-1,-1,-1,-1,-1,-1,-1,-1,-1],"split_conditions":[1.2727803E-1,1.4723122E-1,1.6907197E-1,4.0586993E-2,1.7869672E-1,1.6764985E-1,1.6764985E-1,3.1391686E-1,2.2406037E-1,1.6811773E-1,1.4579047E-1,1.7976011E-1,1.6943705E-1,1.4709702E-1,1.9307804E-1,1.1045337E-1,1.09760985E-1,1.3345334E-1,2.2487602E-1,1.2362689E-1,1.3340567E-1,1.2618831E-1,1.9030626E-1,1.7760316E-1,1.7880504E-1,1.4568299E-1,1.729966E-1,2.4522609E-1,1.2120751E-1,1.853607E-1,2.895879E-1,1.714891E-1,1.1242228E-1,8.1562564E-2,1.0835495E-1,3.0147702E-1,2.1919969E-1,1.3982865E-1,2.1347225E-1,1.5661661E-1,1.8055232E-1,1.3308442E-1,1.2298176E-1,2.0346592E-1,1.3930283E-1,1.879709E-1,-2.2744612E-1,-7.6317304E-1,1.5282917E-1,1.575215E-1,1.84283E-1,1.2888777E-1,1.4495347E-1,1.2423026E-1,1.321257E-1,1.5542012E-1,1.14973456E-1,1.9202332E-1,1.8384218E-1,1.93211E-1,2.015982E-1,-5.3042567E-1,-1.1442334E-1,-3.6799815E-1,4.8846547E-2,-7.0126235E-2,3.400639E-1,3.1634745E-1,6.842219E-1,-3.5924354E-1,1.21382415E-1,-7.565728E-2,3.02154E-1,-2.7130443E-1,2.3685098E-1,4.2804962E-1,-5.44037E-1,-5.618878E-1,3.0524181E-3,-5.0548926E-2,3.4233135E-1,-8.3401166E-2,2.9873273E-1,2.9971835E-1,6.637435E-1,-5.112044E-1,1.9783653E-1,2.8711542E-1,6.053873E-1,6.94343E-1,3.0081939E-2,-2.6471028E-1,2.2072855E-3,-8.970347E-2,2.3263824E-1,5.961071E-1,3.1830722E-1,-4.149833E-1,4.410471E-2,3.0165842E-2,3.3176726E-1,-9.680537E-2,3.5789943E-1,1.3099E-1,5.321471E-1,-9.8534204E-2,2.5924185E-1,4.2659247E-1,1.6890578E-1,1.9771217E-1,4.450279E-1,1.4350852E-1,6.754601E-1,6.758376E-1,1.6027336E-1],"split_indices":[18,228,686,233,707,610,610,368,718,68,124,672,30,400,18,478,455,669,759,669,578,68,50,596,596,668,281,530,596,577,0,455,281,669,478,530,455,426,619,578,124,124,124,657,669,422,0,0,18,687,509,345,281,345,400,610,610,672,97,548,0,0,0,0,0,0,0,0,0,0,0,0,0,0,0,0,0,0,0,0,0,0,0,0,0,0,0,0,0,0,0,0,0,0,0,0,0,0,0,0,0,0,0,0,0,0,0,0,0,0,0,0,0,0,0],"split_type":[0,0,0,0,0,0,0,0,0,0,0,0,0,0,0,0,0,0,0,0,0,0,0,0,0,0,0,0,0,0,0,0,0,0,0,0,0,0,0,0,0,0,0,0,0,0,0,0,0,0,0,0,0,0,0,0,0,0,0,0,0,0,0,0,0,0,0,0,0,0,0,0,0,0,0,0,0,0,0,0,0,0,0,0,0,0,0,0,0,0,0,0,0,0,0,0,0,0,0,0,0,0,0,0,0,0,0,0,0,0,0,0,0,0,0],"sum_hessian":[6.357E3,5.184E3,1.173E3,4.575E3,6.09E2,7.8E2,3.93E2,2.375E3,2.2E3,3.25E2,2.84E2,1.22E2,6.58E2,1.59E2,2.34E2,2.196E3,1.79E2,1.99E3,2.1E2,1.51E2,1.74E2,1.29E2,1.55E2,5.9E1,6.3E1,2.35E2,4.23E2,4.7E1,1.12E2,2.28E2,6E0,2.32E2,1.964E3,7.4E1,1.05E2,1.664E3,3.26E2,1.18E2,9.2E1,6.7E1,8.4E1,7.8E1,9.6E1,4.9E1,8E1,1.53E2,2E0,3.5E1,2.4E1,3.2E1,3.1E1,1.13E2,1.22E2,1.31E2,2.92E2,2.1E1,2.6E1,4.1E1,7.1E1,2.25E2,3E0,1.45E2,8.7E1,1.57E2,1.807E3,2.8E1,4.6E1,4.7E1,5.8E1,1.565E3,9.9E1,2.61E2,6.5E1,5.8E1,6E1,9E1,2E0,3.6E1,3.1E1,3.5E1,4.9E1,3.3E1,4.5E1,4.7E1,4.9E1,3E0,4.6E1,3.2E1,4.8E1,1.5E2,3E0,7E0,1.7E1,2.9E1,3E0,3E0,2.8E1,6.6E1,4.7E1,5.8E1,6.4E1,4.4E1,8.7E1,5.7E1,2.35E2,1.7E1,4E0,2.2E1,4E0,1.5E1,2.6E1,2E0,6.9E1,2.23E2,2E0],"tree_param":{"num_deleted":"0","num_feature":"798","num_nodes":"115","size_leaf_vector":"1"}},{"base_weights":[-1.842969E-1,-1.7898791E0,1.2701557E1,-3.1335719E0,1.0275755E1,6.111906E0,1.8501724E1,-5.305391E0,5.5781155E0,3.3435209E0,1.6158392E1,-3.1765296E0,1.3691979E1,1.3476487E1,2.1541088E1,-6.86241E0,6.504429E0,-2.807319E0,8.001769E0,-4.8508234E0,9.988963E0,1.1054309E1,2.0901772E1,-1.2330244E1,3.7789116E0,6.9368486E0,1.864401E1,8.249535E0,1.755493E1,2.1724901E1,2.6838174E-1,-1.3844083E1,-5.1103783E0,-8.330557E-1,1.2655268E1,-1.0942126E1,5.0733695E0,-1.0114615E0,1.2079464E1,-1.2759021E1,9.50056E-1,4.4690514E0,1.6528418E1,4.376663E0,1.6538496E1,1.641275E1,2.3783524E1,-2.5997453E0,-1.4950386E1,1.777258E1,2.879555E0,-3.382742E-1,8.058535E0,1.18205905E-1,1.9037848E1,9.853703E0,-1.55876E0,1.8203638E1,1.255069E-1,2.1858965E1,1.2883064E-1,1.4155048E-1,-1.294733E-1,-5.076704E-1,-8.455575E-2,-1.8086436E-1,2.8779048E-1,-2.57864E-1,2.0181195E-1,2.0927003E-1,5.370403E-1,-5.1883477E-1,6.245193E-3,-1.02125876E-1,2.9598585E-1,2.0825599E-1,-1.3559526E-1,3.0361682E-1,5.765969E-1,-6.209435E-1,-9.8877385E-2,-2.0363156E-1,2.3476912E-1,-1.1774454E-2,3.421484E-1,5.189252E-1,-1.616487E-1,-5.434262E-2,4.050744E-1,3.3261484E-1,6.1691195E-1,6.464903E-1,2.9104042E-1,7.220434E-1,2.1384734E-1,-3.0920368E-1,2.304211E-1,2.2422768E-1,-4.8054639E-1,1.5195008E-1,5.9049666E-1,4.640271E-1,6.1071407E-2,2.6518914E-1,-4.090357E-1,1.3943344E-1,5.8280885E-1,-2.1498947E-1,3.185035E-1,9.664989E-2,-2.0950547E-1,5.6753373E-1,1.2837304E-1,6.5937865E-1,1.6524848E-1],"categories":[],"categories_nodes":[],"categories_segments":[],"categories_sizes":[],"default_left":[1,1,1,1,0,1,1,1,0,0,1,1,1,1,1,0,0,0,0,0,1,0,1,0,0,0,0,1,1,1,0,1,1,0,0,1,0,0,1,1,0,1,1,1,0,0,1,0,0,0,0,0,1,0,0,0,0,1,0,1,0,0,0,0,0,0,0,0,0,0,0,0,0,0,0,0,0,0,0,0,0,0,0,0,0,0,0,0,0,0,0,0,0,0,0,0,0,0,0,0,0,0,0,0,0,0,0,0,0,0,0,0,0,0,0],"id":11,"left_children":[1,3,5,7,9,11,13,15,17,19,21,23,25,27,29,31,33,35,37,39,41,43,45,47,49,51,53,55,57,59,61,63,65,67,69,71,73,75,77,79,81,83,85,87,89,91,93,95,97,99,101,-1,103,-1,105,107,109,111,-1,113,-1,-1,-1,-1,-1,-1,-1,-1,-1,-1,-1,-1,-1,-1,-1,-1,-1,-1,-1,-1,-1,-1,-1,-1,-1,-1,-1,-1,-1,-1,-1,-1,-1,-1,-1,-1,-1,-1,-1,-1,-1,-1,-1,-1,-1,-1,-1,-1,-1,-1,-1,-1,-1,-1,-1],"loss_changes":[1.3183425E5,9.1892266E4,2.6870992E4,9.6503734E4,2.3108902E4,2.3418623E4,5.4372656E3,7.510494E4,2.0711672E4,1.4315677E4,7.2016016E3,9.596813E3,5.9923164E3,2.9249434E3,9.0133594E2,4.405047E4,2.1493227E4,1.4736217E4,2.9047254E4,5.4253135E3,5.1602295E3,5.420832E3,1.6535703E3,1.6183262E3,1.0311584E3,1.7047478E3,5.3303125E2,1.0380801E3,6.177754E2,4.4360156E2,8.156141E1,2.4490625E4,3.9017156E4,1.2851101E4,7.5921875E3,8.0074814E3,4.7874717E3,6.923491E3,7.4146406E3,3.688206E3,3.7240356E3,2.7020032E3,1.2056934E3,3.9209795E3,1.5713262E3,2.0318789E3,2.7398828E2,1.2676414E3,1.3409521E3,2.1702637E1,8.395403E2,0E0,1.3913652E3,0E0,4.8084375E2,8.033911E2,2.8182483E2,6.748125E2,0E0,3.274922E2,0E0,0E0,0E0,0E0,0E0,0E0,0E0,0E0,0E0,0E0,0E0,0E0,0E0,0E0,0E0,0E0,0E0,0E0,0E0,0E0,0E0,0E0,0E0,0E0,0E0,0E0,0E0,0E0,0E0,0E0,0E0,0E0,0E0,0E0,0E0,0E0,0E0,0E0,0E0,0E0,0E0,0E0,0E0,0E0,0E0,0E0,0E0,0E0,0E0,0E0,0E0,0E0,0E0,0E0,0E0],"parents":[2147483647,0,0,1,1,2,2,3,3,4,4,5,5,6,6,7,7,8,8,9,9,10,10,11,11,12,12,13,13,14,14,15,15,16,16,17,17,18,18,19,19,20,20,21,21,22,22,23,23,24,24,25,25,26,26,27,27,28,28,29,29,30,30,31,31,32,32,33,33,34,34,35,35,36,36,37,37,38,38,39,39,40,40,41,41,42,42,43,43,44,44,45,45,46,46,47,47,48,48,49,49,50,50,52,52,54,54,55,55,56,56,57,57,59,59],"right_children":[2,4,6,8,10,12,14,16,18,20,22,24,26,28,30,32,34,36,38,40,42,44,46,48,50,52,54,56,58,60,62,64,66,68,70,72,74,76,78,80,82,84,86,88,90,92,94,96,98,100,102,-1,104,-1,106,108,110,112,-1,114,-1,-1,-1,-1,-1,-1,-1,-1,-1,-1,-1,-1,-1,-1,-1,-1,-1,-1,-1,-1,-1,-1,-1,-1,-1,-1,-1,-1,-1,-1,-1,-1,-1,-1,-1,-1,-1,-1,-1,-1,-1,-1,-1,-1,-1,-1,-1,-1,-1,-1,-1,-1,-1,-1,-1],"split_conditions":[1.6907197E-1,1.7067514E-1,1.6560706E-1,1.2018887E-1,1.4972174E-1,1.6387513E-1,1.1263612E-1,1.6943705E-1,1.7273705E-1,1.833904E-1,1.7161481E-1,1.7547062E-1,1.4083445E-1,1.6163906E-1,1.7383479E-1,1.2362689E-1,1.7218505E-1,1.6767128E-1,2.7780065E-1,1.411907E-1,1.8310758E-1,1.0565798E-1,1.2262597E-1,1.0155108E-1,1.9286796E-1,1.9902301E-1,1.7427309E-1,1.0918165E-1,1.5829198E-1,1.9189578E-1,1.774478E-1,1.600615E-1,1.6811773E-1,1.5869772E-1,1.5791352E-1,1.3867182E-1,1.16387725E-1,6.9805376E-2,1.8368965E-1,1.3415094E-1,9.1383055E-2,1.3529943E-1,1.7959273E-1,1.9162588E-1,1.3308442E-1,2.0587981E-1,1.8145128E-1,9.484615E-2,1.849727E-1,1.7476211E-1,1.8518397E-1,-3.382742E-1,1.7165084E-1,1.18205905E-1,1.9055277E-1,1.7492403E-1,1.05786785E-1,1.5479647E-1,1.255069E-1,1.7802337E-1,1.2883064E-1,1.4155048E-1,-1.294733E-1,-5.076704E-1,-8.455575E-2,-1.8086436E-1,2.8779048E-1,-2.57864E-1,2.0181195E-1,2.0927003E-1,5.370403E-1,-5.1883477E-1,6.245193E-3,-1.02125876E-1,2.9598585E-1,2.0825599E-1,-1.3559526E-1,3.0361682E-1,5.765969E-1,-6.209435E-1,-9.8877385E-2,-2.0363156E-1,2.3476912E-1,-1.1774454E-2,3.421484E-1,5.189252E-1,-1.616487E-1,-5.434262E-2,4.050744E-1,3.3261484E-1,6.1691195E-1,6.464903E-1,2.9104042E-1,7.220434E-1,2.1384734E-1,-3.0920368E-1,2.304211E-1,2.2422768E-1,-4.8054639E-1,1.5195008E-1,5.9049666E-1,4.640271E-1,6.1071407E-2,2.6518914E-1,-4.090357E-1,1.3943344E-1,5.8280885E-1,-2.1498947E-1,3.185035E-1,9.664989E-2,-2.0950547E-1,5.6753373E-1,1.2837304E-1,6.5937865E-1,1.6524848E-1],"split_indices":[754,707,596,544,68,400,610,30,426,578,578,610,610,400,34,669,345,139,368,124,124,669,124,596,7,597,184,610,223,162,7,68,68,668,281,349,545,164,128,669,669,669,485,124,124,518,664,400,146,10,275,0,185,0,753,43,400,149,0,656,0,0,0,0,0,0,0,0,0,0,0,0,0,0,0,0,0,0,0,0,0,0,0,0,0,0,0,0,0,0,0,0,0,0,0,0,0,0,0,0,0,0,0,0,0,0,0,0,0,0,0,0,0,0,0],"split_type":[0,0,0,0,0,0,0,0,0,0,0,0,0,0,0,0,0,0,0,0,0,0,0,0,0,0,0,0,0,0,0,0,0,0,0,0,0,0,0,0,0,0,0,0,0,0,0,0,0,0,0,0,0,0,0,0,0,0,0,0,0,0,0,0,0,0,0,0,0,0,0,0,0,0,0,0,0,0,0,0,0,0,0,0,0,0,0,0,0,0,0,0,0,0,0,0,0,0,0,0,0,0,0,0,0,0,0,0,0,0,0,0,0,0,0],"sum_hessian":[6.37E3,5.665E3,7.05E2,5.098E3,5.67E2,3.31E2,3.74E2,4.081E3,1.017E3,2.61E2,3.06E2,1.49E2,1.82E2,1.43E2,2.31E2,3.606E3,4.75E2,2.28E2,7.89E2,1.17E2,1.44E2,1.49E2,1.57E2,6.4E1,8.5E1,7.8E1,1.04E2,6.4E1,7.9E1,2.29E2,2E0,7.22E2,2.884E3,2.17E2,2.58E2,1.12E2,1.16E2,2.46E2,5.43E2,4.9E1,6.8E1,7.9E1,6.5E1,6.8E1,8.1E1,6.4E1,9.3E1,1.4E1,5E1,4E0,8.1E1,4E0,7.4E1,3E0,1.01E2,5.5E1,9E0,7.5E1,4E0,2.27E2,2E0,1E0,1E0,5.64E2,1.58E2,2.715E3,1.69E2,1.07E2,1.1E2,1.25E2,1.33E2,7.1E1,4.1E1,4.2E1,7.4E1,7.5E1,1.71E2,4.28E2,1.15E2,2.6E1,2.3E1,3.2E1,3.6E1,4.7E1,3.2E1,6.3E1,2E0,4.1E1,2.7E1,3.6E1,4.5E1,3.5E1,2.9E1,9.1E1,2E0,8E0,6E0,2E0,4.8E1,1E0,3E0,4E0,7.7E1,7.2E1,2E0,3E0,9.8E1,2E0,5.3E1,5E0,4E0,7.1E1,4E0,2.25E2,2E0],"tree_param":{"num_deleted":"0","num_feature":"798","num_nodes":"115","size_leaf_vector":"1"}},{"base_weights":[-1.2420903E-1,-2.3439527E0,1.0032382E1,-4.7118187E0,6.506272E0,6.036419E0,1.8806732E1,-9.4069225E-1,-8.666394E0,3.167758E0,1.5710319E1,-3.3932367E-1,8.754746E0,1.3900048E1,2.0826952E1,-7.9323115E0,1.0980408E0,-1.0105928E1,3.4072504E0,2.171998E-1,1.0619525E1,1.0079887E1,1.928282E1,-4.386191E0,7.8611584E0,-2.8274043E0,1.1881508E1,5.167387E0,1.959754E1,2.0990194E1,1.625248E-1,-1.2078672E1,4.102604E0,-1.3122207E1,2.751039E0,-1.1164018E1,2.1500428E0,-1.968143E0,1.2637214E1,-1.0566648E1,3.5237637E0,4.6603475E0,1.5595814E1,-2.911845E-2,1.5954433E1,1.9606009E1,1.6101646E-1,-1.1630361E1,9.5778465E-1,5.5549293E0,1.6594751E1,-1.2450847E1,6.8431616E0,5.6410937E0,1.4468473E1,-2.253567E0,1.2690776E1,1.2310392E1,2.2339832E1,2.120516E1,2.614215E-1,-4.7250313E-1,-6.1124887E-2,-1.9495365E-1,3.1313473E-1,-5.829371E-1,-8.834695E-2,-3.567967E-1,1.24419235E-1,-7.491317E-1,-3.0437782E-1,-2.9310903E-1,2.6164207E-1,-3.627753E-1,2.0854436E-1,1.4603968E-1,5.314584E-1,-5.216965E-1,-1.2211462E-1,-1.6051792E-1,2.0522718E-1,-1.1262197E-1,3.5501403E-1,4.8673066E-1,-2.2892383E-1,-2.3761821E-1,2.6973337E-1,2.5557008E-1,5.621943E-1,5.981628E-1,6.8944357E-3,-1.8262802E-1,1.2819266E-1,-5.033934E-1,-9.568189E-2,-8.7268576E-2,2.5258973E-1,-2.4990357E-1,1.9858304E-1,5.9420055E-1,6.0218353E-2,-7.2287345E-1,-4.5256067E-2,2.4319798E-2,3.5262838E-1,1.2762811E-2,3.3543482E-1,1.3860415E-1,4.9748388E-1,2.3596618E-1,-1.249413E-1,5.8322227E-1,3.180538E-1,5.6398195E-1,3.163494E-1,6.806617E-1,9.9597014E-2,1.361956E-1,6.3970923E-1],"categories":[],"categories_nodes":[],"categories_segments":[],"categories_sizes":[],"default_left":[1,1,1,0,1,0,0,0,1,1,0,1,0,0,1,1,0,1,1,0,0,0,1,0,0,1,0,1,0,1,0,1,0,1,0,0,0,0,0,0,0,0,1,1,0,1,0,1,1,0,0,1,1,0,0,0,0,0,1,0,0,0,0,0,0,0,0,0,0,0,0,0,0,0,0,0,0,0,0,0,0,0,0,0,0,0,0,0,0,0,0,0,0,0,0,0,0,0,0,0,0,0,0,0,0,0,0,0,0,0,0,0,0,0,0,0,0,0,0],"id":12,"left_children":[1,3,5,7,9,11,13,15,17,19,21,23,25,27,29,31,33,35,37,39,41,43,45,47,49,51,53,55,57,59,-1,61,63,65,67,69,71,73,75,77,79,81,83,85,87,89,91,93,95,97,99,101,103,105,107,109,111,113,115,117,-1,-1,-1,-1,-1,-1,-1,-1,-1,-1,-1,-1,-1,-1,-1,-1,-1,-1,-1,-1,-1,-1,-1,-1,-1,-1,-1,-1,-1,-1,-1,-1,-1,-1,-1,-1,-1,-1,-1,-1,-1,-1,-1,-1,-1,-1,-1,-1,-1,-1,-1,-1,-1,-1,-1,-1,-1,-1,-1],"loss_changes":[1.4480767E5,1.1049051E5,4.027789E4,6.2015867E4,3.4150316E4,1.3746738E4,3.279039E3,3.0369824E4,3.5316688E4,1.7982953E4,5.759586E3,7.9328105E3,2.0168922E4,5.2721914E3,5.226953E2,2.4051986E4,3.8821074E4,2.3547812E4,1.0791258E4,2.0968176E4,6.8071816E3,6.9486055E3,1.1092266E3,6.205165E3,1.4990093E3,1.1159836E4,6.98934E3,2.4851511E3,1.02391406E3,4.7496094E2,0E0,1.3165762E4,8.395674E3,1.0986721E4,3.0290914E4,2.3221531E4,1.1443476E4,1.2546225E4,3.0699727E3,6.046044E3,1.3283486E4,6.5029883E3,1.9632637E3,3.2032693E3,1.3729316E3,1.136625E3,1.2879195E2,2.9021758E3,2.7078308E3,1.00110583E3,7.0990576E2,7.609002E3,1.768051E3,3.7516118E3,6.3575586E3,4.7755606E2,1.0410571E2,3.0875977E1,2.2992578E2,3.869453E2,0E0,0E0,0E0,0E0,0E0,0E0,0E0,0E0,0E0,0E0,0E0,0E0,0E0,0E0,0E0,0E0,0E0,0E0,0E0,0E0,0E0,0E0,0E0,0E0,0E0,0E0,0E0,0E0,0E0,0E0,0E0,0E0,0E0,0E0,0E0,0E0,0E0,0E0,0E0,0E0,0E0,0E0,0E0,0E0,0E0,0E0,0E0,0E0,0E0,0E0,0E0,0E0,0E0,0E0,0E0,0E0,0E0,0E0,0E0],"parents":[2147483647,0,0,1,1,2,2,3,3,4,4,5,5,6,6,7,7,8,8,9,9,10,10,11,11,12,12,13,13,14,14,15,15,16,16,17,17,18,18,19,19,20,20,21,21,22,22,23,23,24,24,25,25,26,26,27,27,28,28,29,29,31,31,32,32,33,33,34,34,35,35,36,36,37,37,38,38,39,39,40,40,41,41,42,42,43,43,44,44,45,45,46,46,47,47,48,48,49,49,50,50,51,51,52,52,53,53,54,54,55,55,56,56,57,57,58,58,59,59],"right_children":[2,4,6,8,10,12,14,16,18,20,22,24,26,28,30,32,34,36,38,40,42,44,46,48,50,52,54,56,58,60,-1,62,64,66,68,70,72,74,76,78,80,82,84,86,88,90,92,94,96,98,100,102,104,106,108,110,112,114,116,118,-1,-1,-1,-1,-1,-1,-1,-1,-1,-1,-1,-1,-1,-1,-1,-1,-1,-1,-1,-1,-1,-1,-1,-1,-1,-1,-1,-1,-1,-1,-1,-1,-1,-1,-1,-1,-1,-1,-1,-1,-1,-1,-1,-1,-1,-1,-1,-1,-1,-1,-1,-1,-1,-1,-1,-1,-1,-1,-1],"split_conditions":[1.2727803E-1,1.2362689E-1,1.6764985E-1,4.0624503E-2,1.6811773E-1,1.5869772E-1,1.4709702E-1,8.209347E-2,2.2454433E-1,1.5878548E-1,1.3869885E-1,1.89137E-1,1.6907197E-1,1.4705372E-1,1.7050625E-1,1.7898414E-1,1.128233E-1,2.2067599E-1,2.1247146E-1,1.6549689E-1,1.4426573E-1,1.6936572E-1,1.825913E-1,1.2791252E-1,2.476293E-1,1.7880504E-1,1.880546E-1,1.755419E-1,1.2695007E-1,1.6545215E-1,1.625248E-1,1.4377137E-1,1.0863232E-1,1.5357666E-1,1.0754071E-1,1.6936572E-1,1.2855016E-1,1.6338356E-1,1.5073535E-1,1.4377137E-1,1.5661661E-1,1.7227769E-1,1.7688079E-1,1.2990007E-1,1.2802075E-1,1.7424156E-1,1.9032744E-1,2.046855E-1,1.8360539E-1,2.073883E-1,1.9307804E-1,1.8227693E-1,1.7121793E-1,1.4049646E-1,1.4709702E-1,1.8782032E-1,1.7941007E-1,1.6752449E-1,1.8206525E-1,1.7627142E-1,2.614215E-1,-4.7250313E-1,-6.1124887E-2,-1.9495365E-1,3.1313473E-1,-5.829371E-1,-8.834695E-2,-3.567967E-1,1.24419235E-1,-7.491317E-1,-3.0437782E-1,-2.9310903E-1,2.6164207E-1,-3.627753E-1,2.0854436E-1,1.4603968E-1,5.314584E-1,-5.216965E-1,-1.2211462E-1,-1.6051792E-1,2.0522718E-1,-1.1262197E-1,3.5501403E-1,4.8673066E-1,-2.2892383E-1,-2.3761821E-1,2.6973337E-1,2.5557008E-1,5.621943E-1,5.981628E-1,6.8944357E-3,-1.8262802E-1,1.2819266E-1,-5.033934E-1,-9.568189E-2,-8.7268576E-2,2.5258973E-1,-2.4990357E-1,1.9858304E-1,5.9420055E-1,6.0218353E-2,-7.2287345E-1,-4.5256067E-2,2.4319798E-2,3.5262838E-1,1.2762811E-2,3.3543482E-1,1.3860415E-1,4.9748388E-1,2.3596618E-1,-1.249413E-1,5.8322227E-1,3.180538E-1,5.6398195E-1,3.163494E-1,6.806617E-1,9.9597014E-2,1.361956E-1,6.3970923E-1],"split_indices":[18,669,610,233,68,668,400,544,718,172,578,345,686,596,29,545,281,578,139,478,478,228,487,30,191,596,191,686,686,224,0,391,128,30,68,228,707,426,349,391,578,391,725,707,707,41,9,281,281,106,18,672,400,281,400,619,350,132,69,638,0,0,0,0,0,0,0,0,0,0,0,0,0,0,0,0,0,0,0,0,0,0,0,0,0,0,0,0,0,0,0,0,0,0,0,0,0,0,0,0,0,0,0,0,0,0,0,0,0,0,0,0,0,0,0,0,0,0,0],"split_type":[0,0,0,0,0,0,0,0,0,0,0,0,0,0,0,0,0,0,0,0,0,0,0,0,0,0,0,0,0,0,0,0,0,0,0,0,0,0,0,0,0,0,0,0,0,0,0,0,0,0,0,0,0,0,0,0,0,0,0,0,0,0,0,0,0,0,0,0,0,0,0,0,0,0,0,0,0,0,0,0,0,0,0,0,0,0,0,0,0,0,0,0,0,0,0,0,0,0,0,0,0,0,0,0,0,0,0,0,0,0,0,0,0,0,0,0,0,0,0],"sum_hessian":[6.421E3,5.27E3,1.151E3,4.158E3,1.112E3,7.92E2,3.59E2,2.129E3,2.029E3,8.17E2,2.95E2,2.37E2,5.55E2,1.07E2,2.52E2,4.8E2,1.649E3,1.813E3,2.16E2,5.86E2,2.31E2,1.16E2,1.79E2,1.59E2,7.8E1,1.18E2,4.37E2,4.3E1,6.4E1,2.49E2,3E0,3.57E2,1.23E2,1.71E2,1.478E3,1.669E3,1.44E2,1.37E2,7.9E1,1.37E2,4.49E2,1.06E2,1.25E2,4.3E1,7.3E1,1.76E2,3E0,6.7E1,9.2E1,6.3E1,1.5E1,5.9E1,5.9E1,1.29E2,3.08E2,2.2E1,2.1E1,1.9E1,4.5E1,2.44E2,5E0,2.61E2,9.6E1,4.6E1,7.7E1,1.05E2,6.6E1,1.28E2,1.35E3,1.13E2,1.556E3,5.1E1,9.3E1,6.4E1,7.3E1,3.2E1,4.7E1,6.6E1,7.1E1,1.22E2,3.27E2,4.9E1,5.7E1,1.22E2,3E0,2.3E1,2E1,2.1E1,5.2E1,1.73E2,3E0,1E0,2E0,4.1E1,2.6E1,6.1E1,3.1E1,4E0,5.9E1,1.2E1,3E0,2.8E1,3.1E1,2.7E1,3.2E1,6.7E1,6.2E1,5.5E1,2.53E2,3E0,1.9E1,3E0,1.8E1,2E0,1.7E1,4.4E1,1E0,2E0,2.42E2],"tree_param":{"num_deleted":"0","num_feature":"798","num_nodes":"119","size_leaf_vector":"1"}},{"base_weights":[-9.125431E-2,-2.0953767E0,9.152006E0,-4.3095126E0,6.39339E0,5.170181E0,1.8373886E1,-7.9275525E-1,-8.2697115E0,3.5001636E0,1.5902199E1,-4.6048603E0,6.9385114E0,1.4286794E1,2.097753E1,-1.9413872E0,9.626852E0,-9.572041E0,5.275632E0,6.1274284E-1,1.1072303E1,1.2185759E1,1.9139416E1,-1.3604293E1,6.7690616E0,-4.47187E-1,1.0840771E1,6.231074E0,1.790557E1,2.1166132E1,1.8201695E-1,-4.256559E0,5.6640935E0,1.7425008E-1,1.4416703E1,-1.6059181E1,-7.6433554E0,-2.252354E0,1.25725765E1,-8.0279665E0,3.593579E0,5.3737674E0,1.6578793E1,1.3326627E1,-1.1901982E1,1.9698307E1,-3.949175E0,-7.274781E-1,-2.5706217E0,-2.5328503E0,1.1362772E1,-5.2139797E0,6.509044E0,4.9239507E0,1.312529E1,2.8300416E-1,1.4042586E1,1.2031545E1,2.0743267E1,2.1290918E1,1.7000686E-1,-1.7730558E-1,2.5496027E-1,-2.4995869E-2,2.4223088E-1,-2.8578135E-1,1.6547264E-1,2.0147128E-1,5.9592867E-1,-5.6331897E-1,-1.4361311E-1,-5.532281E-1,-1.7760566E-1,-2.2673927E-1,2.2213955E-1,2.1842885E-1,5.3096145E-1,-3.7492573E-1,-1.4036663E-2,-1.6935946E-1,2.2266793E-1,-5.7250742E-2,3.0768526E-1,2.7943233E-1,6.0694593E-1,-3.5208252E-1,4.1607812E-1,1.2916741E-1,-4.8013836E-1,5.980757E-1,-1.6774544E-1,9.2668414E-2,-2.1974593E-1,-1.6532516E-1,1.3036148E-1,2.3006858E-1,-1.2552533E-1,4.997747E-1,2.0983094E-1,-3.3431628E-1,5.398959E-2,1.8061971E-3,3.8080302E-1,-3.332129E-2,3.153448E-1,1.1920254E-1,4.6766552E-1,2.0936173E-1,-1.3013974E-1,1.2949212E-1,4.479881E-1,-1.5312755E-1,3.817964E-1,6.356073E-1,1.4867859E-1,6.4234215E-1,1.836402E-1],"categories":[],"categories_nodes":[],"categories_segments":[],"categories_sizes":[],"default_left":[1,1,1,0,1,0,1,1,1,1,1,1,0,0,1,1,0,0,0,0,0,0,1,1,0,1,0,1,0,1,0,1,0,1,1,1,0,1,0,1,0,0,0,0,0,1,0,0,0,0,0,1,0,0,0,0,0,0,1,1,0,0,0,0,0,0,0,0,0,0,0,0,0,0,0,0,0,0,0,0,0,0,0,0,0,0,0,0,0,0,0,0,0,0,0,0,0,0,0,0,0,0,0,0,0,0,0,0,0,0,0,0,0,0,0,0,0],"id":13,"left_children":[1,3,5,7,9,11,13,15,17,19,21,23,25,27,29,31,33,35,37,39,41,43,45,47,49,51,53,55,57,59,-1,61,63,65,67,69,71,73,75,77,79,81,83,85,87,89,91,-1,93,95,97,99,101,103,105,107,109,111,113,115,-1,-1,-1,-1,-1,-1,-1,-1,-1,-1,-1,-1,-1,-1,-1,-1,-1,-1,-1,-1,-1,-1,-1,-1,-1,-1,-1,-1,-1,-1,-1,-1,-1,-1,-1,-1,-1,-1,-1,-1,-1,-1,-1,-1,-1,-1,-1,-1,-1,-1,-1,-1,-1,-1,-1,-1,-1],"loss_changes":[1.1872498E5,9.902232E4,4.183914E4,5.8180695E4,2.9931477E4,1.3843068E4,3.360914E3,2.651649E4,3.4714047E4,1.8293346E4,2.822629E3,1.2682228E4,1.9516604E4,3.8822324E3,4.565E2,3.5152055E4,9.95833E3,2.2310656E4,9.531432E3,1.5663068E4,7.1594395E3,3.4838066E3,1.8069336E3,8.0419316E3,2.3789458E3,7.8262817E3,5.9234414E3,2.0404164E3,1.3172832E3,2.7584375E2,0E0,3.2321605E4,7.3043887E3,3.9386064E3,5.9915625E3,1.2472039E4,2.564157E4,4.4622964E3,2.2581855E3,5.265424E3,1.6030419E4,4.108318E3,2.9161348E3,1.7403887E3,4.6787085E2,8.9846094E2,1.1766019E2,0E0,7.356561E2,3.5217203E2,7.3954004E2,5.842672E3,3.8279204E3,4.2265415E3,7.130293E3,8.347368E2,1.0007764E2,4.579702E2,3.2924414E2,2.3996094E2,0E0,0E0,0E0,0E0,0E0,0E0,0E0,0E0,0E0,0E0,0E0,0E0,0E0,0E0,0E0,0E0,0E0,0E0,0E0,0E0,0E0,0E0,0E0,0E0,0E0,0E0,0E0,0E0,0E0,0E0,0E0,0E0,0E0,0E0,0E0,0E0,0E0,0E0,0E0,0E0,0E0,0E0,0E0,0E0,0E0,0E0,0E0,0E0,0E0,0E0,0E0,0E0,0E0,0E0,0E0,0E0,0E0],"parents":[2147483647,0,0,1,1,2,2,3,3,4,4,5,5,6,6,7,7,8,8,9,9,10,10,11,11,12,12,13,13,14,14,15,15,16,16,17,17,18,18,19,19,20,20,21,21,22,22,23,23,24,24,25,25,26,26,27,27,28,28,29,29,31,31,32,32,33,33,34,34,35,35,36,36,37,37,38,38,39,39,40,40,41,41,42,42,43,43,44,44,45,45,46,46,48,48,49,49,50,50,51,51,52,52,53,53,54,54,55,55,56,56,57,57,58,58,59,59],"right_children":[2,4,6,8,10,12,14,16,18,20,22,24,26,28,30,32,34,36,38,40,42,44,46,48,50,52,54,56,58,60,-1,62,64,66,68,70,72,74,76,78,80,82,84,86,88,90,92,-1,94,96,98,100,102,104,106,108,110,112,114,116,-1,-1,-1,-1,-1,-1,-1,-1,-1,-1,-1,-1,-1,-1,-1,-1,-1,-1,-1,-1,-1,-1,-1,-1,-1,-1,-1,-1,-1,-1,-1,-1,-1,-1,-1,-1,-1,-1,-1,-1,-1,-1,-1,-1,-1,-1,-1,-1,-1,-1,-1,-1,-1,-1,-1,-1,-1],"split_conditions":[1.2727803E-1,1.2362689E-1,1.6764985E-1,4.079496E-2,1.7891316E-1,1.690941E-1,1.6560706E-1,1.550923E-1,2.280498E-1,1.6415687E-1,1.7869672E-1,1.6907197E-1,1.6943705E-1,1.5612578E-1,1.7242815E-1,8.2871445E-2,1.0918979E-1,1.306363E-1,1.6680686E-1,1.1494184E-1,1.5575552E-1,5.4488987E-2,1.7480917E-1,1.8287937E-1,1.356265E-1,1.7218505E-1,1.880546E-1,1.9591776E-1,1.2576428E-1,1.7697312E-1,1.8201695E-1,1.5682988E-1,1.1313824E-1,1.7658861E-1,1.5542012E-1,2.2445147E-1,1.6979863E-1,2.2899437E-1,2.2892255E-1,1.7043559E-1,1.456141E-1,1.5310122E-1,1.2735142E-1,1.6752377E-1,2.3624323E-1,1.766624E-1,1.8976478E-1,-7.274781E-1,4.5256164E-2,1.847537E-1,2.0731017E-1,1.2957017E-1,1.3864872E-1,1.4843279E-1,1.2695007E-1,1.6303022E-1,1.8201132E-1,1.916438E-1,1.8314362E-1,1.9822961E-1,1.7000686E-1,-1.7730558E-1,2.5496027E-1,-2.4995869E-2,2.4223088E-1,-2.8578135E-1,1.6547264E-1,2.0147128E-1,5.9592867E-1,-5.6331897E-1,-1.4361311E-1,-5.532281E-1,-1.7760566E-1,-2.2673927E-1,2.2213955E-1,2.1842885E-1,5.3096145E-1,-3.7492573E-1,-1.4036663E-2,-1.6935946E-1,2.2266793E-1,-5.7250742E-2,3.0768526E-1,2.7943233E-1,6.0694593E-1,-3.5208252E-1,4.1607812E-1,1.2916741E-1,-4.8013836E-1,5.980757E-1,-1.6774544E-1,9.2668414E-2,-2.1974593E-1,-1.6532516E-1,1.3036148E-1,2.3006858E-1,-1.2552533E-1,4.997747E-1,2.0983094E-1,-3.3431628E-1,5.398959E-2,1.8061971E-3,3.8080302E-1,-3.332129E-2,3.153448E-1,1.1920254E-1,4.6766552E-1,2.0936173E-1,-1.3013974E-1,1.2949212E-1,4.479881E-1,-1.5312755E-1,3.817964E-1,6.356073E-1,1.4867859E-1,6.4234215E-1,1.836402E-1],"split_indices":[18,669,610,233,124,596,596,672,759,680,707,686,30,400,220,544,596,544,718,544,455,232,441,672,400,345,191,686,686,66,0,707,426,610,610,349,191,426,128,172,707,172,478,151,83,207,151,0,532,10,400,281,281,345,686,18,617,0,224,542,0,0,0,0,0,0,0,0,0,0,0,0,0,0,0,0,0,0,0,0,0,0,0,0,0,0,0,0,0,0,0,0,0,0,0,0,0,0,0,0,0,0,0,0,0,0,0,0,0,0,0,0,0,0,0,0,0],"split_type":[0,0,0,0,0,0,0,0,0,0,0,0,0,0,0,0,0,0,0,0,0,0,0,0,0,0,0,0,0,0,0,0,0,0,0,0,0,0,0,0,0,0,0,0,0,0,0,0,0,0,0,0,0,0,0,0,0,0,0,0,0,0,0,0,0,0,0,0,0,0,0,0,0,0,0,0,0,0,0,0,0,0,0,0,0,0,0,0,0,0,0,0,0,0,0,0,0,0,0,0,0,0,0,0,0,0,0,0,0,0,0,0,0,0,0,0,0],"sum_hessian":[6.407E3,5.266E3,1.141E3,4.177E3,1.089E3,7.98E2,3.43E2,2.213E3,1.964E3,8.36E2,2.53E2,1.22E2,6.76E2,1.36E2,2.07E2,1.994E3,2.19E2,1.792E3,1.72E2,6.06E2,2.3E2,1.2E2,1.33E2,6.8E1,5.4E1,2.34E2,4.42E2,4.3E1,9.3E1,2.04E2,3E0,1.529E3,4.65E2,7.4E1,1.45E2,4.09E2,1.383E3,8.5E1,8.7E1,1.55E2,4.51E2,1.14E2,1.16E2,1.15E2,5E0,1.3E2,3E0,3.4E1,3.4E1,1.8E1,3.6E1,1.39E2,9.5E1,1.24E2,3.18E2,2.5E1,1.8E1,3.2E1,6.1E1,2.02E2,2E0,1.354E3,1.75E2,1.26E2,3.39E2,2.6E1,4.8E1,6.1E1,8.4E1,3.29E2,8E1,1.89E2,1.194E3,5.5E1,3E1,4.4E1,4.3E1,9.7E1,5.8E1,1.32E2,3.19E2,4.6E1,6.8E1,4E1,7.6E1,2E0,1.13E2,1E0,4E0,1.29E2,1E0,1E0,2E0,2.4E1,1E1,2E0,1.6E1,1.5E1,2.1E1,7.5E1,6.4E1,4.7E1,4.8E1,6E1,6.4E1,6.8E1,2.5E2,1E1,1.5E1,2E0,1.6E1,1E0,3.1E1,5.9E1,2E0,2E2,2E0],"tree_param":{"num_deleted":"0","num_feature":"798","num_nodes":"117","size_leaf_vector":"1"}},{"base_weights":[-5.1749114E-2,-2.0309286E0,8.81845E0,-3.4919183E0,9.7105E0,5.137596E0,1.7572157E1,4.1291204E-1,-6.948228E0,3.4519427E0,1.6309496E1,-3.7814014E0,6.875504E0,1.3847342E1,2.0259283E1,-6.782517E-1,1.3068051E1,-8.217158E0,4.867906E0,-3.683116E0,1.0852937E1,1.03642435E1,2.0412672E1,-1.2359554E1,5.237286E0,-5.0557727E-1,1.0869938E1,6.0052743E0,1.8114262E1,2.038422E1,1.578119E-1,-2.0852776E0,9.080144E0,6.8383718E0,1.8006985E1,-9.73734E0,4.250848E0,-3.2020051E0,1.2701414E1,-1.0221201E1,6.183417E0,4.742216E0,1.6425909E1,4.420756E0,1.7570015E1,3.4107144E0,2.0916368E1,-7.1919346E-1,-1.9488411E0,6.662142E0,-5.6609166E-1,-6.146567E0,7.330996E0,5.4932437E0,1.2824745E1,4.536555E-1,1.2427006E1,1.1944916E1,2.023509E1,1.5993446E-1,2.0510622E1,-1.1064577E-1,2.8872743E-1,8.095262E-2,4.2312524E-1,6.7147404E-2,3.522829E-1,3.8003603E-1,6.459448E-1,-3.272068E-1,8.112135E-2,-5.4312453E-2,3.1129897E-1,-2.5997636E-1,1.9297637E-1,2.0097768E-1,5.335077E-1,-5.25588E-1,2.4099354E-2,-8.519984E-2,3.365188E-1,-1.4424436E-1,3.0734316E-1,-1.7608137E-1,5.2227265E-1,-6.347147E-2,2.7000764E-1,2.6010984E-1,6.5697825E-1,2.9418343E-1,-1.8760169E-1,6.3764757E-1,6.689832E-2,-1.19336866E-1,1.2390904E-1,-2.4365156E-3,3.675545E-1,-3.2381713E-1,1.9587867E-2,4.6446536E-2,3.7648985E-1,2.0140749E-1,-4.6542823E-1,1.1200774E-1,4.5250174E-1,1.5812887E-1,-1.4145148E-1,2.1248661E-1,4.8360103E-1,3.7975952E-1,-9.918308E-2,6.133802E-1,8.522896E-2,6.190857E-1,1.6660675E-1],"categories":[],"categories_nodes":[],"categories_segments":[],"categories_sizes":[],"default_left":[1,1,1,0,1,0,1,1,1,1,0,1,0,0,1,1,0,1,0,1,1,1,0,1,0,1,0,1,0,0,0,1,0,0,0,1,0,1,0,1,0,0,0,0,0,0,1,0,0,1,0,1,0,0,0,0,1,1,1,0,1,0,0,0,0,0,0,0,0,0,0,0,0,0,0,0,0,0,0,0,0,0,0,0,0,0,0,0,0,0,0,0,0,0,0,0,0,0,0,0,0,0,0,0,0,0,0,0,0,0,0,0,0,0,0],"id":14,"left_children":[1,3,5,7,9,11,13,15,17,19,21,23,25,27,29,31,33,35,37,39,41,43,45,47,49,51,53,55,57,59,-1,61,63,65,67,69,71,73,75,77,79,81,83,85,87,89,91,-1,93,95,-1,97,99,101,103,105,107,109,111,-1,113,-1,-1,-1,-1,-1,-1,-1,-1,-1,-1,-1,-1,-1,-1,-1,-1,-1,-1,-1,-1,-1,-1,-1,-1,-1,-1,-1,-1,-1,-1,-1,-1,-1,-1,-1,-1,-1,-1,-1,-1,-1,-1,-1,-1,-1,-1,-1,-1,-1,-1,-1,-1,-1,-1],"loss_changes":[1.1326984E5,9.052181E4,3.7833977E4,6.3327508E4,2.4063008E4,1.2891332E4,3.2026094E3,3.0443521E4,3.735972E4,1.5934735E4,6.716461E3,1.0586189E4,2.0496348E4,4.8769785E3,2.6754688E2,2.7891475E4,5.26126E3,4.2649156E4,1.5338873E4,9.997469E3,4.9622266E3,4.975962E3,1.3588203E3,8.416664E3,2.4270962E3,1.0875538E4,4.6697383E3,1.9195165E3,1.01436914E3,2.6740625E2,0E0,3.335113E4,8.1698066E3,1.7560212E3,1.5525645E3,2.9189453E4,9.115635E3,6.3727793E3,3.6328574E3,7.4969727E3,2.8480667E3,3.8329585E3,1.790041E3,1.9946704E3,1.852166E3,4.321563E2,9.7746094E2,0E0,4.8515662E2,2.4133586E3,0E0,4.5257827E3,3.0889429E3,3.2317856E3,6.7198086E3,7.7183E2,3.7922388E2,3.3575122E2,1.9872266E2,0E0,2.5350781E2,0E0,0E0,0E0,0E0,0E0,0E0,0E0,0E0,0E0,0E0,0E0,0E0,0E0,0E0,0E0,0E0,0E0,0E0,0E0,0E0,0E0,0E0,0E0,0E0,0E0,0E0,0E0,0E0,0E0,0E0,0E0,0E0,0E0,0E0,0E0,0E0,0E0,0E0,0E0,0E0,0E0,0E0,0E0,0E0,0E0,0E0,0E0,0E0,0E0,0E0,0E0,0E0,0E0,0E0],"parents":[2147483647,0,0,1,1,2,2,3,3,4,4,5,5,6,6,7,7,8,8,9,9,10,10,11,11,12,12,13,13,14,14,15,15,16,16,17,17,18,18,19,19,20,20,21,21,22,22,23,23,24,24,25,25,26,26,27,27,28,28,29,29,31,31,32,32,33,33,34,34,35,35,36,36,37,37,38,38,39,39,40,40,41,41,42,42,43,43,44,44,45,45,46,46,48,48,49,49,51,51,52,52,53,53,54,54,55,55,56,56,57,57,58,58,60,60],"right_children":[2,4,6,8,10,12,14,16,18,20,22,24,26,28,30,32,34,36,38,40,42,44,46,48,50,52,54,56,58,60,-1,62,64,66,68,70,72,74,76,78,80,82,84,86,88,90,92,-1,94,96,-1,98,100,102,104,106,108,110,112,-1,114,-1,-1,-1,-1,-1,-1,-1,-1,-1,-1,-1,-1,-1,-1,-1,-1,-1,-1,-1,-1,-1,-1,-1,-1,-1,-1,-1,-1,-1,-1,-1,-1,-1,-1,-1,-1,-1,-1,-1,-1,-1,-1,-1,-1,-1,-1,-1,-1,-1,-1,-1,-1,-1,-1],"split_conditions":[1.1618103E-1,1.674376E-1,1.6764985E-1,4.0043164E-2,1.6811773E-1,1.6907197E-1,1.6560706E-1,3.1325474E-1,2.227615E-1,1.833904E-1,1.4579047E-1,1.5517168E-1,1.5132552E-1,1.6398522E-1,1.7349206E-1,1.0993388E-1,1.0855171E-1,2.1678197E-1,1.5194501E-1,1.7902164E-1,1.24671385E-1,1.7161481E-1,1.8588354E-1,1.8227693E-1,1.8765171E-1,1.6087414E-1,1.880546E-1,1.940325E-1,1.2626375E-1,1.9034092E-1,1.578119E-1,1.07403815E-1,1.09498054E-1,1.9004413E-1,1.0716705E-1,2.1560672E-1,2.176284E-1,2.2098348E-1,2.2212148E-1,2.0648712E-1,1.2373024E-1,1.1684993E-1,2.4452187E-1,1.4296547E-1,1.1813082E-1,9.593123E-2,1.6970594E-1,-7.1919346E-1,1.785996E-1,1.1667268E-1,-5.6609166E-1,1.8851675E-1,1.307454E-1,4.896132E-2,1.4709702E-1,1.7050569E-1,1.0346227E-1,2.031869E-1,1.8031122E-1,1.5993446E-1,1.7697312E-1,-1.1064577E-1,2.8872743E-1,8.095262E-2,4.2312524E-1,6.7147404E-2,3.522829E-1,3.8003603E-1,6.459448E-1,-3.272068E-1,8.112135E-2,-5.4312453E-2,3.1129897E-1,-2.5997636E-1,1.9297637E-1,2.0097768E-1,5.335077E-1,-5.25588E-1,2.4099354E-2,-8.519984E-2,3.365188E-1,-1.4424436E-1,3.0734316E-1,-1.7608137E-1,5.2227265E-1,-6.347147E-2,2.7000764E-1,2.6010984E-1,6.5697825E-1,2.9418343E-1,-1.8760169E-1,6.3764757E-1,6.689832E-2,-1.19336866E-1,